{{-1.44403978926,-1.90640885635,-0.126754242156,1.09800885094,-0.257137759465,-0.831460587007,0.0562478243893,1.0407415619,-1.21855907906,0.388307708937,-1.96924301092,0.702635052321,-0.798634322234,-0.17306675044,1.12945312187,-1.85781258315,0.898265368138,-0.563179015034,0.572258729948,-0.534129733461,1.36847461829,-0.749364991025,0.0706014386699,1.2781722524,-0.964008924917,1.20005554949,0.758972830182,0.361112615039,0.436406604421,-0.828491533811,-0.184394279239,1.3325635809,-0.313402140439,-0.821964525718,0.362067601067,0.715501022744,0.472789888117,-0.537151689687,0.495260943774,-0.0176635313251,0.689848112329,-0.395661218779,1.04766746435,1.22036462695,0.276893082606,-1.12068137826,0.415764655813,-1.00994137398,-1.06878997938,1.07855695221,-1.45981023315,-0.354801297209,0.566430134358,-0.870583991482,-1.2838385434,-0.576663961704,1.78813237233,-0.800245554732,-0.351343030527,-0.153255208007,-0.930093236584,0.203975622277,1.96191899723,0.757198333742,1.01769600972,-0.746287046376,0.640060764101,1.50866860985,0.159415458904,-0.0791227163072,0.0868398326877,2.04370425526,0.761733336954,1.90909867122,-0.74742272956,-1.86074426288,1.06488486332,-1.01300086006,-0.172435490656,-0.637683888458,0.491139447662,0.841404349967,0.388308348795,-0.408944293682,-0.72875692194,-0.0335532110243,0.175408060196,-0.471607267886,-0.201366922518,1.0838494462,-0.0904511007571,0.492810132931,0.00119021767504,0.00205596107743,0.289665428136,0.221033303598,-0.645351735226,0.489454541267,-0.698034661227,-1.38644825851,-1.00133474596,-0.791984841768,1.44173292804,-0.105841374069,-1.21877384213,0.633544372952,-1.52797272327,-1.12842993523,-2.10562462802,1.6487606064,-0.675588656434,1.43113522034,0.817050510911,-0.384447045959,0.520664613232,-1.12360468102,-0.402772512161,2.1922319341,0.157008329875,0.559753680892,-1.3113051893,0.228711747139,-1.18955272709,-1.52813857005,-1.73679950945,-0.214704632022,0.617477876617,2.12997816935,1.48303274377,1.18595732729,-1.15038085451,0.3428602451,0.82715166508,-0.38043178634,-0.0161450318173,-0.692364672484,-1.07131697623,-1.52070273487,-0.981373183491,1.63602110289,0.0258916300433,2.43210446953,0.200270954224,0.324291669013,0.791964319967,-0.125519169802,2.00915288431,1.16250958864,0.733549390018,0.195081911517,-0.547117313731,-2.28948946621,-1.43489660799,1.03345276814,1.2388102546,-1.15962796507,0.566345863344,-0.675721350111,-1.71596949455,-0.919464033603,-0.0806757795971,0.159409229767,-0.395965448607,1.33454769757,1.03778594983,-1.84578437072,-2.11817158296,0.26528384269,-0.509038052745,-0.0508429307052,1.58043155596,0.0626713305338,-0.839403831803,-0.280994725718,0.241845838162,1.5662637529,-1.84394600044,-0.197123066863,0.676915695483,-0.586025980217,-0.106291189744,0.763715141401,0.980229680196,-0.296367474288,-0.415616825758,-0.211043835907,0.43995529866,0.136805635034,0.325469006283,-0.0606677076226,-0.547230654257,-0.595757895501,2.34186531169,1.26654140185,-0.275920382782,-0.294331553695,1.40147272399,0.546427546489,1.04670512097,-0.822587742304,-0.0402583229457,-2.0586226482,-0.428170464163,0.168288468751,1.12116120743,-0.399680486296,-0.377732599958,0.126187643506,0.419143071056,0.286057533513,-1.18496886883,-0.0790245505959,-0.119141688581,1.93854793512,0.677678257602,1.07647510953,0.951335333955,-1.18215131315,1.59035701719,1.42025492992,0.144065258393,-0.136417662996,1.03113870875,0.743683993509,-0.835195367565,-0.545990357299,-0.447427790324,0.172543708636,0.300965921412,0.944537918195,-1.39681920901,0.0999770333438,1.13116555773,-2.21941413669,-0.772951093147,0.0290420173479,-2.00534257674,1.46402405919,-0.275949618029,0.509181103035,1.24155944464,-0.328926592204,-0.350265379688,-0.619093503774,-0.93159209542,-0.778168589116,-0.0869846914926,0.997066447793,0.0362913410912,1.40782279163,1.08395755265,0.777792684668,-2.77029117791,-0.262290929533,-0.84217377037,0.583488081151,0.907879246934,-1.43723029286,-0.352153526265,0.506170163893,1.60831694155,-0.784525000588,1.88039520797,-1.20268202662,-0.743541185212,1.42399650463,0.0939640767407,-0.606435223038,0.439500800484,1.65137188018,-0.649807409628,-0.0184422142896,0.577299768867,-1.79301642048,-0.209440492025,1.09108035308,-0.203523813898,0.213821919754,0.762189057588,0.959390965756,-1.03720153502,-0.773209092333,1.00151979796,-0.294933990394,-0.423349390403,-0.556810561912,-1.1507477734,1.55614642677,-1.84473588991,0.365293445586,0.0603923797887,-0.206067683135,-1.46755467735,-0.180416126318,-0.385351247718,1.15264795736,-0.915827152909,0.092045662013,0.169817053608,1.20000750814,-0.343899213159,-1.49127030594,0.704731864145,-2.55440873979,-2.51322784412,0.000893809840748,-0.623325268269,0.171594336932,1.24470500411,-0.474316013391,1.52038542356,0.109776765516,2.9284044628,0.72392250725,0.142611953867,2.01730866863,2.16393742312,-0.343778394822,-0.584360839619,0.0731883379019,-0.317658459921,1.09863229104,-0.503481359259,0.225596375705,-0.376634717095,2.20531617092,-2.62563999472,1.46263656966,-0.984074731946,-0.671258539749,0.412040011613,-0.0863940634237,1.43663837284,0.280148745308,-0.889923185575,0.620137091799,1.61599878705,-0.867909903409,-0.0798531875261,0.956811529427,-0.56696946856,1.39930588584,1.59045153147,1.44301527086,0.445791495085,0.185964548799,0.950684760693,-0.0549948477598,-0.195959082621,0.361907452054,0.291645599252,-0.381788416664,-0.133042585579,0.807986674058,1.30068227328,0.367331837803,-0.783177570153,-0.154878146353,0.702567024327,-0.32717543622,-0.951095566626,1.41905540043,-0.574552071381,-0.513437417883,0.547776075294,-0.476457675142,0.192883876146,-0.940939055244,-0.414010003128,-0.690572873281,-2.19196433493,-0.0912571050645,1.2436084431,-0.061371407908,1.32530552321,0.502306955356,0.746725398099,-0.0513958258934,0.157324567802,-1.33803896547,-0.0747294331896,-0.129911170214,2.11782501275,0.45297483735,-3.51906865973,0.675356219174,-0.384855266669,0.528689156463,-2.16568259205,0.226940173583,1.40466510522,-0.991455809925,-0.824863529801,-0.114811847883,-0.674981968651,1.11897334702,-0.169782367409,-1.55081171868,-1.13341281876,-1.81711870236,-1.47343767263,0.850499719874,-1.15943553712,0.0287011188114,0.292519612703,0.981708489086,-0.834709167956,1.77277319642,-0.286440066132,0.965149223476,-0.136433284365,-1.81491549852,-0.401692162332,-1.67277960843,-1.28342999249,1.0501736001,0.401651348107,-0.456081907645,1.12305487999,0.621169745073,-0.975584211697,-0.378815182127,-2.06796348719,1.83558132811,0.867528848244,-0.976599320759,0.257527343178,-2.14477862947,0.400627401149,-0.218792122848,-1.36344976354,-0.900672913356,0.472453336411,0.0653826275411,0.0536359751855,-0.370505674728,-1.17739358649,1.68474899131,-0.205413050022,-0.53967607289,0.128460193317,-0.176674974111,0.433525956417,-1.29727761843,0.563860285353,-0.786976013338,-0.562563921418,1.97834130069,0.661886862509,0.328811806272,1.56420030053,1.03411570175,0.640920382621,1.68912129354,0.062426104022,-1.05949848454,-0.545108318801,-0.314430955788,-0.410381567811,1.21521529848,1.24115804542,0.269436042325,-0.620346429996,-1.14541442113,-1.315998972,-0.550289441141,0.846430621923,-0.706426925973,-0.611128606526,-0.106682590773,1.54738765958,1.30789668655,-0.50210260733,-0.00454122708754,0.950442197838,-1.1472277963,-2.48440675948,-0.0826337758401,1.45044169026,-0.118172104897,0.220803006179,-2.00485110502,-1.01656257431,0.431781049604,-0.401323168264,-0.608615457773,-0.301033243219,-0.111431149235,2.67373469036,-0.576716164358,-1.6098783746,0.228692004666,-0.010016240013,-0.438650785617,-1.81538074447,-0.924088441933,0.30471708223,0.633130643269,0.422022325022,0.572657891503,-0.0452906009962,-1.75957447306,-0.11568286448,0.0995706408613,2.08024403807,-1.30047736319,0.987167740913,-0.842055805345,0.159203471518,-1.86193684774,-1.7033822411,0.579784559579,-1.9177837457,-0.036484199901,0.792203147919,-0.793418118356,0.520138509154,0.187939218233,-0.302762266109,-0.775729013279,1.81784128216,0.12158932756,-1.41876465778,-0.445656181326,0.117249919699,0.809248689163,0.448368484237,-0.51212578532,-0.176200128708,0.515950420874,-1.08827932847,-1.47981078604,-0.3703138721,1.17489239518,-0.723374269408,-0.753316941763,0.105940098733,1.4059195933,0.280301680828,-0.116612291363,0.595104957427,1.02538711738,0.77523071856,1.0364829469,0.883111159629,-0.194508600355,-0.642587982441,-1.51608758074,-1.2004920472,-0.367365087603,1.03095604322,-0.211095204024,1.38295961958,0.319427834933,0.849519745778,1.97624160036,0.272851089487,-0.88132516266,0.361241177104,-0.00246694019784,-0.107536969252,1.24766487048,0.177237995845,0.88159996853,-1.22824461658,0.555153157598,0.522793393144,-0.501936734577,-0.779570351368,-0.211440705205,0.662366616301,0.158432798032,-0.37690971426,0.760796413044,1.95782828051,0.421457495488,0.602466445328,1.46505868052,-0.578953804782,-1.48355558992,1.61592244391,0.0293967803612,-0.143473783799,-0.894397955333,-0.429826724946,-0.849320551173,0.956836775997,-1.23163498064,1.55547096255,-0.21142986334,0.759926711503,-0.199763259646,0.433741199492,-0.167592341274,1.63812219964,1.27249006123,-1.34615656044,1.47677637853,0.0386328506812,1.36648394153,-0.861809762303,2.02918998255,0.807664374922,-1.94322725311,-0.605095312162,-1.31357568136,1.95185312861,1.40390619753,2.12720022607,-0.157502435503,-1.88637212263,-0.650293620677,0.144297102782,-1.14569284042,0.0712347028669,-0.460895032149,-1.246800789,-1.81855692536,0.7642919326,0.122849059881,0.0466326772948,0.411701448583,-2.28213116926,-0.593041489172,0.923000247955,-0.848000046604,-0.783456875549,-0.782731085328,0.0676905507697,1.60187162484,0.0524598461454,0.789191591757,1.96729897924,1.26718746496,1.18562050299,-1.83716469199,-1.48406428877,0.0293921690766,-0.310703626717,-3.60649156619,0.490203280935,0.890867690025,0.070386621547,0.164360567606,-2.97849517515,1.49471535762,-1.51116336195,-1.25313660434,-0.313301281153,1.24015275609,1.28448906294,1.08433939859,-0.981170686606,-0.75725826256,-0.33530674301,-0.332725237074,-0.946775188424,1.56296918235,-0.464994911732,0.347772599537,0.28122047141,0.243019677984,1.34569193673,-0.82701654507,0.0650422390367,-1.21143665089,1.47542343635,0.365127310007,-1.28925422418,-0.370017564288,-1.02381497758,-0.974428672775,1.34949824371,0.850380458511,0.565955175076,1.361762773,-0.220318109936,-0.704635770299,1.47066007723,1.04099444752,1.23364489778,-0.146168519882,-0.734695497685,2.03178522722,-0.565338695296,-0.723078201394,0.0849344694409,0.512476519412,0.121442842944,1.13908468945,-0.492879097011,-1.16628287033,-2.30069284954,1.1866568932,0.818386214324,0.910954229908,0.616733185545,0.0798089935736,0.257274770013,-0.515683356427,-1.19668633621,-0.221609778146,-0.887736685024,1.77085064554,-1.24117345038,0.420678299041,0.114494376912,-0.139777764414,-1.21741180159,0.181186090733,-0.301517704162,-0.884102207974,1.21879992679,-0.820803354096,-1.60357990662,-0.308678990177,-0.828646198902,0.11997155201,-0.606403360117,1.06990810681,-0.556697684912,0.727608892234,-1.36005595727,1.09183486938,0.430889484167,0.72495758054,-0.888110172207,0.485678920242,0.338317255807,-2.60366659189,1.27978760966,0.70986854417,0.220782759746,0.129427915154,-0.567854110982,-0.0546994722094,0.552354387896,0.259439630596,1.15160445603,0.362599292194,0.0150618333885,2.19717961546,-0.990910810632,0.412782652414,0.0525394028795,1.04006810048,-0.209059843774,1.45086996413,0.177176207662,1.26814852038,-0.607438328429,-0.327866872659,1.76809134708,0.822665249129,1.21943611129,-1.67681329741,2.8432529636,-0.957348363006,0.126488859704,-0.841221746249,0.888870085191,-2.15573547457,-0.77733326294,0.854775445049,-0.476573989635,-0.583882902122,-1.59146745313,0.23533124024,0.242567773137,0.852099211718,-0.49381447759,-0.384466857159,-2.247090105,-0.171540440269,0.423534131072,0.876080694247,-0.937578056887,0.0931140028098,0.598697043311,-0.154267622805,-0.447023413894,0.71589325457,-0.805526514559,-2.48293722705,},
{1.01108831187,-0.190573060317,0.739956381545,-0.433256132105,-0.310331772986,-0.368288010232,0.93548234547,0.216798157238,-0.747317512161,1.01000140338,0.532361815362,0.443347108504,2.70851233296,2.40265312566,0.0672077326052,-1.26542831579,1.84469299255,0.144215782707,1.51747455975,1.4990309956,0.043690712675,-1.45614117305,-0.236865901854,-1.63104227682,0.0842643425722,-1.41827549035,-0.721162967981,-0.310972436647,0.868681811994,3.32700650356,1.99862974196,0.477849809912,0.70630271088,1.50605694431,0.131410326777,0.881219066111,1.65888053993,0.467523123737,0.980009771829,-1.61825939899,-0.140893814148,-0.811944278104,1.09573521355,0.17692104691,-0.690091975161,-0.458525571462,0.718144646115,1.76205293055,-0.2007752534,-0.0332464516386,-0.396466357575,-1.73040416332,-0.534221592763,-0.243176436947,2.32580656698,0.992573499416,-0.645461417673,-0.280196652143,0.82797991827,0.334479339183,0.395589105791,-0.733815871287,0.745334947631,-0.250335429799,1.01350825353,-0.751887855174,-0.158615503855,-0.345423634608,-1.34113912845,2.36596098131,0.254163429775,0.0783438366247,0.917660541478,-0.310169739101,-0.256943290217,-1.25560587644,0.3808485484,-0.378669941528,0.0568104873404,1.6517296304,0.226381652342,-0.979920898936,-0.620764659745,0.00772490462868,1.33289363109,1.56174597122,-2.4267406442,0.352391868263,-0.464208466485,-1.35661882477,-0.858573358066,1.04104365961,-1.77025723105,0.833725885803,-1.03523788233,-0.650021748259,0.162121665763,-2.2976834591,0.443148364913,-0.0656654467389,0.0628807113888,0.0527020581135,0.82837074337,0.100795602818,1.18943293119,1.40265173108,0.279430663703,-1.18526552002,-0.563583104849,0.359970448613,1.0229355645,-0.559111562498,-1.93836122142,0.261129314902,0.131552395599,0.0106219127371,-0.622157336138,1.15443624272,-0.523201501834,1.0283765562,0.419854226004,-0.839539350446,-0.24131130852,-0.805482979678,1.39358039059,-0.436982515153,-1.31423690628,1.30378125273,0.35244410658,0.185182051284,-1.41611679946,-0.645675281796,-0.417125815654,1.41358011861,-1.31321022972,0.86624661981,-1.54095840769,-0.176834078317,-1.23809453237,0.565456662321,-0.849513901731,-1.01085679918,-0.484404283768,0.996835702473,0.672921441408,-0.171265497449,-0.586508886213,0.477987956985,1.28044571126,0.243242272392,0.386690157358,-3.03129263243,0.988128657898,-0.318620234011,-0.504045047587,-1.08855197108,-1.25463096084,1.38595500086,1.17614665013,-1.2295046977,-1.09723202031,-1.23421576392,0.228347113342,0.643299102055,-0.486040074214,-1.53530792313,-1.54234326043,1.46292095921,0.78457359929,-2.21531756761,-0.220971823627,0.24878511323,1.41685675514,-0.247354858026,2.12051760541,2.33205570042,0.657233148735,0.0515799349716,-0.920296794045,0.894674812887,-0.939742241536,0.315132298601,-2.1677482185,-0.923731660297,1.31765341905,-0.774291238419,-0.0410719926509,1.09744902606,0.934675244469,1.53952368839,-0.500067116581,-0.229634760411,2.04611737278,0.240235266062,-0.765739819712,-1.00039321542,-0.318563650127,0.452338347456,-0.0222549990191,0.556271793289,1.0588002153,-1.12359698085,0.896970775397,-0.237978561442,-1.7087331755,-1.39392739272,0.0847007286238,-0.410115162809,-0.0254964180324,1.35790114968,-0.0484307711654,-0.234994214388,-0.42416890442,-0.603519249696,-0.333942204641,0.488788729408,0.0184740020875,-0.521951067632,0.99470268394,0.0796261029683,-0.197980894956,0.0631668564719,-0.563964401202,0.382129045652,1.17215397975,-0.174832932002,0.588101265698,-2.91519969636,-1.59444948692,-0.0748572391758,-0.0175784593453,-0.288233969653,0.990724896495,0.347781514509,1.81040274211,2.09812180541,0.088068452491,-0.147201412673,1.71035932974,0.017457951135,0.298290820288,-3.07247085732,0.898001041947,-1.0430319741,0.365688887481,-0.344495936785,1.01424229194,0.626190107928,0.419004421242,-1.56707702564,0.762362917501,0.578690621689,0.313809559168,-0.737524529186,-0.68995177267,-0.931849946349,0.444276190252,0.200823283012,-0.0806151762149,-0.474164373717,0.430567398783,-1.27111654542,-0.231693414253,2.17573560703,1.54691936278,-0.98779389379,-0.497622566526,0.234187308203,-0.0756847444165,-1.0364424561,-1.52679068793,0.562199417156,0.33997851357,0.494251189189,0.0133833240963,-0.7548896838,-0.440708331632,-0.630046640702,-0.721281434848,-0.515690108273,-0.0158422096107,0.492112386387,0.00694117291392,-0.858524159357,-0.669988750928,0.660268768262,-0.363840723986,-2.01127584604,-0.357349082216,1.00325667702,1.66019593519,-0.640849542884,-1.33875683213,-1.09260461514,0.130248096514,-0.571680694605,-0.515616521718,-0.0692809100711,-0.111180039407,-0.431563607113,-2.05820303439,-1.32701620039,0.580895805275,-1.88111358912,-0.69036828732,-0.570627834716,0.599041479673,0.382880610497,0.301236184234,-1.55538465877,-0.157778237602,-1.46699790937,1.78321147703,-0.333350998649,0.210257191752,0.710711293872,1.99945380005,-1.66849506527,0.172689083025,2.10622375986,0.674498918472,-0.696586231623,-0.583106302722,0.779569919244,0.547836872211,0.0375041761942,0.526130656302,0.250594992913,-0.804500497961,0.209449290723,0.821050260671,-0.794425633126,-0.47197425645,0.390626334137,0.481721635002,1.61865640161,-1.57609827237,-2.51438236108,-0.998687725064,-0.214251705239,0.740356146538,-0.113668963463,1.05792769587,-0.0580327669982,-0.543196210052,1.67199010954,-2.12144469154,0.0740864474621,1.56234197132,0.369597867484,-2.22960541185,-1.33340100802,0.477927016354,-0.668059632213,-0.473526832002,-0.818180938752,-0.53968163344,1.55623638736,-0.0353194684186,-1.49580252511,-1.91521273829,1.10259900519,0.511183374256,0.886921749643,-1.67075698818,-0.890222867549,1.29072525772,-0.868854705321,0.031299931374,0.686304484874,-1.385327661,-0.323703557279,0.700859904135,-0.418546686618,1.1348022922,1.27421164897,-0.145487224886,-1.06161693463,-1.10469989037,1.99914952783,0.321472333864,-0.749948522879,-2.00923009762,-1.52833351984,1.15211833454,0.547760434253,-2.14221027691,-0.527885783184,1.12458521388,1.71944557886,1.52874396591,-0.83595519806,-0.78068601077,0.565593213901,-0.997091415082,-0.0371419322528,-0.911804716852,-0.459156988998,-1.01404698119,-1.35101915265,0.861916076199,0.0564638891239,-0.329288848717,0.782862903567,0.975313112283,-1.42028939027,0.401993206116,-0.802377528555,-0.642814608651,-0.0544038896758,-0.444468956701,-1.83109332385,-0.414658233852,-0.33548188902,-0.576466753377,2.36373871588,-0.389410291021,1.45442506272,2.25199774235,-1.52203077977,1.53846540426,-0.392769185834,-0.0603378750458,0.65187639857,0.158158127814,-0.816941750922,-0.0424311091934,0.561622296637,-1.30496703155,2.20037903953,-0.842896639307,1.97607810755,0.919558785166,0.75331920655,0.30753053067,-2.17110310828,-2.11028584985,-0.197728816801,1.26304084927,0.127116984387,-1.18900502654,-0.0675083105152,-0.358064737844,-1.1944536268,-1.50394036598,0.861033765066,-0.866513477357,-0.899366704444,2.21156705945,1.1779431335,0.683050203307,0.110465141711,0.238699266502,-1.75213565028,-2.72111646299,0.969084878095,-1.55816915594,0.636512692197,-0.592242165326,-0.466552918105,1.55365953652,1.06282650186,-1.88202135162,-1.57461055188,-0.434177876622,-0.384570949554,-0.0182917913434,0.599143061515,-1.55382989989,0.345258679318,0.889845050576,-1.34668562968,0.49025822501,-1.45643613668,-0.52837618619,-0.462386879184,1.10321709493,-0.29834634681,-0.695660503103,0.362624725981,0.737699294701,-0.351492294796,0.761548983449,1.13490925596,-0.55618075137,0.941446724985,-1.5852381775,-0.00475832576183,-1.21553744118,0.904821656287,0.190008958331,-0.176160625159,-0.662453023611,-0.496173417859,1.82809548394,-0.107113368522,0.370606384061,0.214118933618,-1.24286267603,0.781948467089,0.0803637885129,1.66054785479,3.23648240901,0.385075786976,0.91916646379,0.978813097671,0.655659715918,-0.452119425036,-0.808831812857,-0.327894773225,0.644155785538,0.231742026583,-1.4392004204,-0.180525082758,-0.425012593001,-0.304809067264,0.0887137548465,-1.80663880594,-1.03721085651,-0.0486409978788,0.525628857221,-0.318211512308,-0.361430817612,-0.659851087432,-0.523448425146,-0.0584495518104,1.60954815235,0.685614222541,-0.456405154683,0.619599582597,-1.05887674829,-0.00818992270367,-0.779415992109,-0.550848511122,-0.292414638346,-1.29036155991,0.872436138394,-0.945166916627,-1.24956688646,-0.699410193825,0.133839740072,-0.687497597995,-0.37011840964,-0.845026165689,-0.901847670105,0.375039006777,2.72418560555,-0.140366318918,-0.521308719991,-0.826952026095,1.08364582459,-0.419872989354,0.0479577132854,0.305516623918,-0.0223643943841,0.671937814447,0.894712079684,0.201032726218,1.08096844707,-0.585769710704,-0.566756020466,0.15011556947,0.665827625622,-1.38602629888,-0.21292731004,-2.20473660468,0.867874177017,-0.649388923033,0.860395520885,1.04478804906,0.898193552116,-0.347392408317,1.12854315496,-1.16564880453,0.748389594042,-1.3176343821,-2.04850493159,-1.68974905325,0.633099915519,0.755140544678,0.631628413391,0.693423856964,-0.755832944034,1.83933751501,-0.457324668693,-1.395857644,-0.981642845405,-1.09611814191,-1.42822041181,0.425230763879,1.26569955633,0.660293777988,-0.212149572878,2.0932496406,0.236929029117,0.267076838414,-1.19184959074,1.25884718472,0.231189032435,0.370041674339,0.47705728157,0.26074981203,-0.319706888081,1.15692090744,0.00408141913043,-0.649282087289,-1.24235675632,0.0677440794922,0.297465326902,-0.69103732859,0.678170605928,1.06804015647,0.426844668194,-0.686076506312,0.123666385034,-0.610473472068,-0.175764859116,-0.319448676479,1.21569304774,-1.93556340862,0.822512503961,-0.387050373775,0.766583748639,-1.45253229087,0.65441630499,-1.88828010713,0.154624528931,-1.02532331345,1.4871122428,0.512033439084,-1.28496682281,-0.196956942709,-0.213754011366,0.731589588597,1.27683719831,0.154646049718,2.26001692365,0.854082135071,-0.0519554307731,1.24442657846,-0.585273149522,-0.599952918754,-0.463751867466,-0.786769174987,0.139723916786,-0.0260110259421,0.485860246116,1.88165542181,-1.60817071925,1.06357021211,0.488488257629,0.687756075046,0.577381001886,0.310524963307,-0.534400031349,-0.940628987318,0.77526727705,-0.633026397101,-1.27860694231,-1.58391653664,1.21077355806,0.427461555437,-0.866691413884,-0.181176652287,0.496186729288,1.57712049536,0.875033451225,1.05015837742,0.00309200629764,-0.773895506872,0.941625996681,0.200019765997,0.538481301701,-1.64141156628,-1.59239741326,-0.127945631028,-0.627580749581,-0.286667750135,-0.0871500394914,0.0924275114883,0.200001975616,-1.10546637298,-0.423560309992,0.302087766249,-1.00141332931,1.03124176656,-0.664331145195,-0.145310953411,-0.940728244066,-1.37231902097,0.811417143721,0.458372467257,0.508542941823,-0.0287313245093,-1.40244397948,0.68131073705,0.000593850082977,-0.840854051135,1.15979597439,1.70874985086,0.234136771012,0.763318914648,1.10403606826,1.30507467512,-1.65604247794,-1.0076159755,2.41013081733,0.400967957916,0.122496387408,1.76244109556,2.00214418873,1.20066716442,-0.545889075795,-0.0792870530163,0.11074406052,0.654154362579,-0.281523755278,0.00547076642809,0.11748560744,-0.751159093968,0.415865064083,-0.0401843853143,0.341037242553,-0.220222753726,0.434041384905,-0.612540658114,0.556452112682,-0.0321598679485,-1.79150214583,-0.839564973096,0.756157760899,-1.69755384372,1.6369040284,-0.50245565315,0.21591220161,0.0130980394532,-0.0720624402771,-0.149498103318,1.41430410212,-0.831652499906,1.13551699551,-1.42473381496,0.672137329224,0.558320865067,0.312462738718,-0.461165999694,0.700753091474,1.16884960373,0.310727074704,-0.623872061067,-0.026161035093,-1.20362489377,-0.812866143314,-0.242660564195,0.911045242291,-0.534588395722,-0.807169203276,0.053861443601,0.682031639152,0.0471464703653,-0.788974441821,-0.374504391765,1.07359882673,-0.820597861979,1.94037838866,0.904005623752,-1.53467341291,-0.125180416158,0.424660830124,-0.220435184631,1.51345503888,-0.0178076776912,-0.380405094344,-0.0714350096995,-1.09532261659,-0.00481507894391,-0.596387010331,0.361661882013,-0.742140625116,-0.247980818278,-0.648522368588,-1.27800807445,-0.361042463117,1.87199626742,},
{-0.955793760618,0.180378932748,0.97911082556,-1.04457632369,-0.448973874645,-1.3190930166,-1.40294263869,1.358308099,-1.54917452116,2.09514164816,0.442134677275,0.130613355017,-0.00774985207157,1.24795769088,-0.277584172635,0.499046538032,0.768201320518,-0.76450830154,0.896671828123,0.695615803572,-1.35448045058,0.610185818931,0.17457005214,-0.0350310457372,-0.712914083962,0.176133395743,0.991582269698,0.154206139201,-0.0919990551032,-1.05727020227,0.869238618355,-0.507254355065,0.236869196269,0.692605184796,-0.586796088884,-0.0444450482814,-0.420944123941,0.299238789397,0.279259553133,-1.1758908556,-0.814897003652,0.103041159505,-0.174800923916,1.74382265744,0.709459897383,0.770515199452,-0.331175374921,0.594375365734,-1.50642445469,0.230493620425,1.78492950434,0.902270657911,-0.808222669445,-0.22687403409,0.807952089911,-0.0264165191232,-0.132040879399,-0.264538374541,0.327569459142,0.698998644305,0.98281704471,0.862901707643,1.75864890129,-0.505178639454,-1.38113645421,-0.904421565385,0.0127944463932,-0.577086704739,-1.4246460784,0.802515994907,0.535791813212,-1.96450481324,0.897012777062,1.49557409174,0.385433593328,0.561938894739,-1.23085678347,0.455562613983,-0.889313832712,-0.0379546757836,-0.109858995479,-0.539261550427,0.311717306522,-0.728164368162,2.59141722813,1.66783581121,-0.123563523873,2.124609613,0.272319840451,2.31213265054,2.00536844104,1.47903502896,-0.329257707455,-0.896710717229,-0.145987848394,0.607927426977,1.94084202251,1.26779528841,-0.131778814027,-0.033786889334,-0.0957998165344,0.380247920681,-0.848784296786,0.505434839698,1.23231562979,-0.862439340085,0.393955617109,0.703153861535,1.11107323512,-0.192021638836,0.571161671149,-1.8278518982,0.519119437839,-1.07062246096,-0.0970290686828,-0.472195881793,0.85194505638,0.427123465654,0.00912801250617,-0.470836892023,0.0498525972438,0.757487309941,0.781032461048,-0.0978979089527,-0.181677697387,-0.96865955269,1.20801357902,-0.876656961276,0.309641635956,-0.637348640439,0.351588211133,0.574406193157,0.483234647231,0.241937963362,0.0473266936243,-0.560948948804,1.38823806414,-0.808888858347,-0.801531904084,-1.77003739689,-1.8240590534,-1.14370518802,0.34874223026,0.334977698698,-0.0728708638504,0.730281087901,1.16310584344,0.199764103295,-1.06984724068,-0.143224606844,-0.803624376388,0.805450406502,-0.415130551138,-1.28777959566,-0.443380467795,-1.10043401651,1.60352121998,1.10870965471,-1.29833197319,-0.384957806366,-0.248689195314,-1.34779832742,-0.629155916296,0.457059026135,-0.375776647457,0.531068526512,-0.371074425612,0.0422965251023,-0.391598503808,-0.501089737133,0.10434841605,-0.797752862245,-1.69981880541,0.875372189153,0.62103288955,-2.03142246342,-0.0648575716753,2.42453049785,1.96208620962,-1.50546909408,-0.685727835317,-0.0742808733148,-0.931390003249,0.604445391429,-1.48528492104,-0.118752663041,0.483554762478,0.0366889547629,-1.38099991537,1.18669939507,-0.155742017203,-0.315268196167,-1.48556933857,-2.86298929425,0.286080479927,-1.10446036073,0.574264440521,0.711147727631,-0.31491596143,2.43431791263,-0.647247023324,-0.00620943427246,0.607718251848,1.66804177514,-0.514153492771,-0.317874471711,-0.217535245265,0.512258743678,-0.348170665813,0.0410086302866,0.184530101933,0.0430879178253,-0.15027754151,0.306901459894,0.225815191497,-1.57757683016,1.37899629717,-0.309498403832,0.833067604718,-0.677177021817,1.84214285031,0.846883511132,0.0390451934965,-0.269176014141,-0.263034194456,0.248754981006,-0.764652485281,1.95619951248,1.15359638919,-1.20400201267,1.30607940346,-0.217154959354,-0.204245128327,0.831841569875,-1.21470872369,-1.56014095775,-0.100533426054,-0.430119836054,-2.01009883167,-1.39211106601,1.48241242943,0.297564668942,0.612707599712,1.522591978,-0.232949788613,-2.41019015431,-0.0493920740852,0.330897643328,-0.545354542723,-0.458226804629,-0.159465668161,0.257627914982,1.16959576329,-0.879179958277,0.145477877775,0.912817654655,-0.00809017667009,-0.218762722373,-0.301531054283,0.790896048288,0.263739608251,-0.076485667548,-2.21207018571,1.4639957013,-0.579746191497,0.20754162539,0.351038526498,1.24287070881,0.149469582174,-0.946295121663,0.201035325102,0.74684565305,-0.12363267932,2.25906320321,-1.03081547336,-1.87078842484,0.118770942968,0.337283403328,-0.441668859496,1.28895949688,0.30273540074,0.348071550143,1.25932593928,-0.71860786363,1.64411639992,2.23759447294,-0.405516099428,-0.714307077202,-0.783064777522,1.27389124785,-1.28582811896,0.0269970054417,0.216346751387,1.85719835365,0.196089374837,-0.723080110075,-0.477056523365,0.637631105823,0.270868981161,-2.09304539821,0.116676950806,1.37257414602,-1.0597291741,0.454042034226,0.396003033951,-1.01570695381,0.886756207972,0.944880798899,-0.416309119781,1.36380361548,0.811674072868,-0.439771369222,0.425722634714,-0.634822995822,0.425483751522,0.543860705999,-0.199685860918,-0.456083823591,-1.68509245433,0.222682143746,0.0646311588177,-1.64344132763,0.570651316673,-1.68905889709,-0.0866161378238,0.232152886361,-1.28431033447,-0.227903300519,0.748981892943,-1.49290564111,0.227772469402,1.57654005379,-0.494050869859,0.484294636537,-0.345811589659,0.61837507718,0.000496013768493,-0.383959700955,-0.27726817331,-1.04691556248,0.258954630139,-0.733447892872,1.44900341465,-0.835119851007,-0.93563225555,-1.80017195806,-0.0221713845445,-0.62605177314,0.0942664719427,-0.662147346472,1.00634715468,0.433015234089,-0.956848920232,-0.338512287284,-1.04716198362,-1.78826206021,-0.141996452966,1.10814736527,-1.26808544826,-0.375460881901,-0.466759572869,-2.09368064127,-1.35934948003,2.47466048537,-0.0910465783558,0.37781768727,-0.256950131236,-1.31810559913,0.923035292963,-0.819144952659,0.944373742959,0.764515495279,-0.271349310526,1.15741293858,1.0893962019,-0.547765256939,0.418011540512,-0.181847949033,-0.465657567095,-0.0328616766527,-0.811439380403,0.422604400206,-1.10927727466,0.127520541841,-0.433162539719,0.777257268557,-0.658051841724,0.775828647735,-1.27566473586,-0.509659137158,0.0235164608792,1.86644384969,0.475961821264,-1.98421713966,1.17235322213,-0.448653022957,0.746991987459,-0.519896037914,-0.45976217395,-0.524836222163,-0.891131322932,2.30605954827,0.263086268472,-1.25955491392,-1.14127594309,0.852360487212,0.130969559143,1.0366302547,1.04748528728,-0.328142410035,-0.109074709965,-0.497774098609,-0.534515812997,-1.69656784474,-1.88561771232,-0.0419115811016,-1.2899866253,-1.04037438403,-1.57040615856,0.972498061123,0.234818697274,0.264854030636,-0.376033705145,0.0310253455604,1.18200191814,0.231600981091,-0.729367989561,-0.519968518742,0.515634913369,-1.90900201373,1.0738244326,1.70980419603,-0.358518762391,-0.956501688975,0.620206319731,0.619293070128,-1.54346187533,-0.0632836209794,0.098717659837,-0.278105750541,0.292822857134,0.999244004063,-0.152679119449,0.689072897336,-0.116306271411,1.02596750313,1.01616301426,-1.97969439806,0.772078321465,0.698454340893,-1.06442547997,0.727327551176,2.7746395287,-0.308217346761,1.0476797602,-1.1832624693,-1.20362246403,-0.458668306331,0.392310887465,1.92516480734,0.351256297678,-1.79631158353,0.252681534713,0.0795118980404,2.15191961327,1.08187415708,-0.877285539053,0.00527400278259,0.624292333849,0.581868308047,-0.988341599987,1.22446219971,0.320929295324,1.26865199746,2.36189450287,0.272373551826,-0.826662577334,0.31848908602,-0.38823679692,0.0124524189071,-2.8150705967,-1.38672465603,0.602974384624,-0.341588963899,1.29973576547,0.11467285347,0.952927659975,-1.09966464691,1.34610075843,-1.83507515442,0.999029858449,0.763811068857,-0.723479533372,-0.063543744649,-0.583372361442,0.668824764438,-0.463567153858,-0.822751454457,0.821895619767,-0.238947739564,-1.93619812048,-0.708558237429,-0.0270076066739,1.91115009108,0.413957828169,0.306260376616,-2.10034435034,-0.240049553169,0.43758972935,-0.329290327517,0.469061266578,-0.284286159405,0.386132390345,1.22840601138,-1.18966551347,0.582022028573,-0.579488083695,1.07099589432,-0.778722031601,-0.6522013478,-1.28677008629,-0.266383987638,0.850989205124,-1.57155599206,1.06633392487,-0.417890869359,1.41613375589,-0.357589184519,-0.609835495467,1.16430477797,-0.784169086602,-1.25062041171,2.30078210929,-0.249765041354,-0.0591910313893,-0.842025048791,-0.667190655686,0.485451195201,0.379234092145,0.727989242918,-0.783361897051,0.852709458544,0.279749080638,1.26872848662,-0.471534450228,0.761494972076,1.11915954219,0.586365843322,1.70184383244,0.973256975404,-0.160492482982,0.378083266845,0.776059534319,-0.339356511892,-1.29486912636,0.611623130377,0.109325668872,-0.927095351049,2.42004302801,-0.621694424437,-0.417553272432,-0.289738194539,0.640342476512,1.74118595163,0.563117821416,-1.02498831466,0.609021848939,-0.190841433677,-1.57765482351,-0.936730131844,-1.42408210982,-0.793244407341,0.308665090046,0.363182599037,-0.264716057655,-1.50367121083,0.359769723315,1.21763825885,1.67834462499,1.55467577704,-0.47814983855,2.25965968807,-0.571749814442,0.229294206136,0.51201895459,0.270510981821,1.89112758646,-1.42593740136,0.814256278334,1.15485043031,1.22030467975,-0.979043651432,-1.01972050438,-0.938223334421,0.123098776454,0.482962040135,0.581910898875,0.508152508066,-0.516341507115,0.650388885386,1.00695351971,0.479168383921,-0.850943620937,1.76365314341,0.1002229224,-0.178546032752,-0.615795017794,-0.204809893471,-1.06105845381,-0.877534593054,-1.66649622591,-1.0771707438,-0.136304506306,1.31447411508,-0.250095446228,2.06679245114,-0.719657641717,0.767892432015,-2.32238967618,0.153178624982,1.1049006028,0.0937520187827,0.341378655964,0.151503969328,-0.118932654895,0.555260371656,0.792390066924,0.457095007538,-2.87391198531,-0.32161898036,1.12224126243,-1.06386431202,0.920078034981,1.38303079483,1.30508707857,-1.14435274376,0.105254114595,-0.485772726645,1.16035843724,0.770380097163,1.2417866131,0.338432047302,0.524584211073,-0.977523396805,-1.20758474526,1.49093200596,-0.925485487179,-0.322891620855,-0.340806215142,-1.72945704867,-0.166729558391,-0.07034458283,1.13596273557,-0.617346351723,0.704460166184,-0.4218933607,0.876885396981,0.846941668926,-0.743131364211,0.395140689388,-0.757715619813,0.34455612406,-2.0117576357,-2.28215655141,1.35711165495,0.440013113409,0.627335070349,-0.0834048784865,0.30528354894,1.32790230161,0.647584474879,-0.115143798991,-0.625389801545,-0.599880835644,-1.27440473358,-0.889510758026,-0.867658087711,-0.625017848383,-0.607033363041,1.7028915918,-0.11652281778,1.86011257701,-0.465114212402,1.25668380053,-1.64297055989,1.07491113271,-0.21062562155,0.448019865574,-2.15784734598,1.34432914857,0.410228335125,-1.29502852757,1.5097140479,0.186007288373,-1.7594354431,-0.0598603109008,-0.223888236919,1.16027027575,1.75623578197,-1.10741432903,0.0626621280041,-0.364265124294,-0.00370228163587,0.711054749583,-0.226545327379,-0.235324601883,1.17600528646,-0.731379936576,-0.0503470842799,-2.30623552979,-0.109990269289,0.733546141739,0.913448915534,0.342564107604,0.122243772833,-0.638948688288,0.377336766346,-0.815235988985,-1.38940929938,-0.221439391772,0.262390862972,-2.03825019981,-1.62768885934,-0.0911843338476,-1.18657699053,1.72670982448,0.102042765246,1.21098112065,0.753615924203,2.6104265559,-1.05220594681,-1.19596676478,0.38648081211,-1.05274283299,-0.767866090708,0.591909918908,0.16561651004,1.02107334267,-0.979550619159,-0.971741343001,-1.08608956161,-0.89118698203,-0.166600647547,-0.46882430748,0.286024496924,-0.516448734171,-1.72193175018,0.662158449029,-0.0394385680864,0.596233820182,0.949749592792,0.0107852471439,1.92520456163,0.213460624149,0.561025181802,-0.976085121972,-0.879869368621,-0.833171433426,-0.044986737849,0.167300988673,-1.78484105459,0.265930309282,-0.234174352681,-1.56990773024,0.60223677824,-0.290890969133,-0.665606238329,-0.149738230303,-1.11513523188,-2.30824069987,-0.328664014904,1.0124448668,1.34673403744,-1.17735810958,0.541332574992,-0.408821932251,0.902320226489,1.37793990509,-0.0372116206471,-0.0461487517024,-0.281947190795,0.435128749884,0.218959987487,-0.220610267949,},
{-1.32929537219,-1.25003905082,-1.24538321824,0.485818650381,0.574088929325,-0.768305512417,-1.31739546997,0.122764170022,-0.381134716255,-0.841604224324,0.61690263313,0.656267035076,-0.152302353203,-1.11076776243,2.29141776178,-0.565518352158,0.495663482611,-0.827835885661,0.204025198254,-0.00218173643283,1.87215485993,-1.28751257108,0.244462030419,-1.67933383574,-0.208836303261,-1.03188846249,-0.447233346615,-1.16081644718,-1.52872220857,0.0754978610797,-0.49341079307,0.0202678645834,1.46457703869,0.911357348518,1.45449157638,0.542443511913,-0.535185161911,0.498141355773,-0.290483434716,-0.2068012282,1.24419789245,0.155080375043,-0.146451930984,1.62072584012,-0.106854682893,-1.49143925608,1.64209288928,-1.27525680609,2.06990565192,0.19622240848,0.441693315246,0.154451152532,-0.329742831773,0.777338633333,-1.64968196612,-0.341341883469,-0.280512288256,1.48098526281,-1.46216648755,-1.63852915886,0.642784647175,0.0907151107651,-1.17779898808,-1.59262070851,-0.441662687924,1.17990982332,0.856731471636,-0.929895970845,0.828779853396,1.67714232864,-1.1566042669,0.197787919513,0.573434327162,-0.985897902919,1.32635134281,0.981757282822,1.44734203081,-1.64578237138,1.09390339485,1.20246808725,-0.262916144227,-0.426142807417,1.14149790383,1.5052693744,0.0669341274021,-0.752344339296,-1.13191312014,0.492840511983,0.274729456583,-0.588713008303,2.66415125992,0.254370558236,-0.933183133146,-2.9428430278,0.607799577733,0.0662014084715,0.249846529204,-0.0884234228815,1.41118584904,0.781395497602,1.54871106463,-0.681878829965,0.363459246896,-0.118502756442,0.107726044061,-0.974662350782,-0.352455070312,1.82488059335,0.227867381557,-0.930088797941,1.39904778896,-0.884825116844,-1.8030902979,0.252634960992,0.411243494938,-0.595298080703,0.171379246599,-0.783247367109,-1.30479719148,0.248426316998,-0.552943939063,1.00272047965,0.651842169548,0.276929097702,-0.750606174156,0.517396830719,0.710435072278,-0.997890983542,2.06141323762,0.405197596726,1.61669423246,-1.0835175794,-0.822962674385,1.33936586288,0.674419278437,-0.55642231162,0.581404065409,-2.35229643699,-1.16202641116,-0.0876652219767,1.30674683741,0.247310622105,2.1845123699,1.27435960653,-1.26798822201,0.435356574435,1.70948438063,0.496153053934,-0.798725543921,0.706255708886,-0.720851136895,-0.484203287996,-1.36379263179,-0.479011389098,0.224532507496,-0.0485878789804,0.964967658161,-0.21169338115,-0.0441417106266,-0.289476797821,-1.54265867881,-0.18882727934,0.0165999444057,-2.19430991304,-0.0422395453548,2.18152417212,-1.2440464705,-0.55231860824,2.28481930606,1.85338314106,-0.185516871151,0.844169287364,0.212009480335,-1.30335258294,1.73296281399,-0.72390581152,-2.21207285711,-0.771210897478,-0.020700080206,-1.11987602815,-0.520019904013,-0.330939601055,1.41237291754,0.132221999263,-0.865518856239,-0.515751891849,-0.490664547648,-0.355133969783,-0.550690746428,-1.99980731107,-0.158562311514,-1.28998385057,-0.111266636099,-0.383371762876,0.326193378262,-0.260919729789,2.47003612529,2.90052984813,-0.31086247849,2.58151493197,-0.0529878276955,0.493364057491,1.0229439166,0.261132810023,-0.500394341982,-0.915555847669,0.00961089354473,-0.561077565992,-0.899760845168,0.498540306788,-0.0127935509559,0.909917352613,-1.33403762003,-0.993659117553,0.178901168043,0.60701967261,0.552715042068,-1.65445006055,0.544873473509,0.293332734748,1.09614841075,0.974632417072,1.68972924905,-0.0348356887831,1.56916672023,0.134533315907,-0.457310198552,-0.4837365066,-1.61852820833,-0.871965087779,0.576378703896,-0.632028541549,1.34406658585,-0.014964385963,-1.61155967377,1.1738495959,0.973281481222,0.820721446792,-1.02364042532,1.91549526134,1.72561188742,-0.153063205065,0.0821571685986,1.18896011564,-0.591443250815,1.50488107267,-0.985113263563,-0.621491057066,-0.102761817408,0.396030980929,-0.115130680416,1.62789395888,0.866499665276,-1.07341252258,-0.142920172529,1.22207040061,1.33045526082,-1.32578837183,0.446298246096,-0.502147488017,-0.0226577816687,-0.83832786093,1.09596832993,-1.72769655235,1.32612313316,0.154820607103,-1.26893316605,-0.539832173428,0.0325868255122,-0.214442694537,1.95165941879,-0.252455741326,1.68497044848,-0.692280002321,0.626484675175,-1.55600916002,0.429506886416,0.896585633911,-0.818053980698,0.213848338537,0.499427684722,-2.3542614014,-1.47842553742,-1.34064120803,-0.149714814698,-1.23542560899,-0.359415835136,-0.780262108993,-0.510437090429,0.945810896582,1.14604130415,1.82761499158,1.2206515159,-2.04135061651,0.259960856143,-0.41723508342,-0.255825827916,2.20403108114,0.505415088821,-0.0723227456932,2.28995128116,0.644763792623,0.950752390648,-0.637921843206,0.508558731168,3.05154888042,0.87566149169,1.0814973596,2.89003580566,-0.355585237356,-0.691735043094,-0.198977666144,-1.10982970569,-1.45686189901,-0.834239668252,1.6791967597,-0.94386729373,-2.17298858276,0.209200453211,0.41363809925,-0.357740788519,-2.01379843404,-0.679979389663,-1.44353686275,0.263535367906,0.85474929873,-1.02946689247,-0.105529641841,0.293922141787,0.875664915166,-0.37504180075,-0.818034501528,-0.720907817127,0.517062186553,0.34602266119,-0.865289484661,1.79978195785,0.824510420701,-0.925781440483,0.0765681338033,2.53024779051,0.328803988859,-0.357641066686,-0.0301002402074,1.1940523952,-0.635607186511,-0.230730801943,-0.447296791404,0.194914723148,-0.768061396347,-0.862662420918,-2.42689809849,1.01369247602,-0.654541412053,0.998441596104,0.791853699836,-2.07773133238,0.0648951060739,-0.652460418608,0.436628300794,0.820005042386,0.971370172177,-1.03676201964,-1.42629133544,0.42703586742,0.276694021598,-1.04812554247,-0.584798501026,0.517427277155,-1.04065493814,0.197170060024,-0.376539808516,-1.66975522424,-1.9999994334,-1.90995355777,-0.903858014147,-0.313178893603,-0.465400252382,0.64616239812,0.649900359628,-0.920892423973,0.925955891911,-0.828290996176,1.3531557418,-0.400841879864,0.657309345484,-0.982335250316,-0.306780745972,-1.16486479236,0.469799491517,0.40881551398,0.159627952535,0.0951521980419,-0.0330944937462,-0.671394878469,1.3909788951,0.344187805102,-0.718866039794,0.0734290873609,-0.884949600489,-0.455481712862,0.111579401465,-0.0109693164524,0.507324222108,0.729732435926,0.706429414245,0.958021364696,-0.702437310826,-1.36523838221,1.00491319136,-1.60998457208,0.271008265453,-2.44661094679,-0.918814382939,0.126380073506,-1.20505797882,1.20614619645,-1.80110727735,0.331406967017,-0.0471673079839,0.163739825193,0.821570869658,1.52957045061,-0.240203531613,-0.19650702868,-1.37720811949,-1.0760477921,-1.21821653576,-2.29706409993,0.309864177537,0.880224255756,1.23728299851,-0.943593257723,-0.213207452078,-0.603727392177,-1.70957135599,-0.934254503711,-1.29501269081,0.623428328832,0.747795367018,-2.16832301063,1.20672295622,-0.393657922648,1.69231208011,1.61637129574,-0.100878601005,-1.13540711415,-0.2364228972,0.0913464927634,-0.325189919246,0.7386312836,0.558283457898,0.684123010393,0.369992816783,0.954606504874,-1.69442923971,0.455575088042,0.234166913152,-1.11850028845,0.707516048497,0.504989146926,0.829901656294,-0.74001352132,0.167520788538,1.37771139709,-1.30706368995,1.12999712903,-0.749679288032,0.443955459925,1.08974723589,-1.48786419955,-0.806148673366,1.33240777609,0.649311032594,-0.533851859644,1.01885809805,0.514480419274,0.0314106584064,0.661111219283,0.487904902567,-0.189047751014,-0.438792999765,-0.100939473438,-0.311885982241,0.629903733824,-1.59084870054,0.248290093004,1.09869120114,0.839872465802,-1.01231927943,1.57500091911,-0.588885919678,1.28152449147,-0.0069466990366,-0.662533845936,-0.704890754058,-0.169141213444,-0.607243210232,-0.464709554188,-2.10031165265,1.30735571595,0.476694134176,2.32524149622,0.992079267301,0.222839477309,0.223606089563,-0.731180852328,1.6594374508,-2.52889194237,-0.646942164238,-0.0610363889496,1.558559281,0.220882700071,-0.740271119108,-0.567404017589,-0.650484258517,-1.6922923364,-0.173439286269,-1.01443596307,-1.45411485062,-1.35934181235,0.0738331154451,-0.442108449163,-0.449435289182,-0.00271729266962,-1.60846567125,0.624699752,-1.01925077489,0.298263623922,0.379597558632,-0.390105070193,-0.51390599736,1.28945724456,2.7141727145,1.07182352884,0.0895058282402,-0.385554337969,-0.0455522398833,0.442151300309,-1.04642192777,-1.83754061768,-0.505614773896,-1.91779164361,-0.464990391595,-0.564150210374,0.222521752237,0.983314929487,0.536525443152,-0.223945945028,0.201404928974,0.294203208339,-0.572401413656,-0.46170613037,0.708824350037,-0.352201460629,0.0733731551458,1.12089235413,0.951771228215,-0.732536751295,2.22057450796,-1.04619051979,0.21246371127,0.0276767056437,0.93408737696,0.275417564489,-0.208015857539,-0.415691481191,0.664624739928,1.712506809,0.70827650767,1.24913885925,1.20947252165,0.633098583793,0.76226571225,0.498438864524,0.613162288516,-0.104209999381,-1.64772393711,-0.480529665106,0.33302160845,3.01449872615,0.764478794693,-0.018578628706,0.411105744548,0.241906878538,-0.245306754896,0.8964006826,0.140424181229,0.388261090621,-0.0418489006636,0.247799695958,-1.91027372853,0.10946533724,0.538724763959,0.351847450771,1.47663086979,0.740090499923,2.00928656039,-0.263266488296,0.693078735515,1.40109011543,0.849926554428,0.446225380146,-1.05220750298,1.20665664144,-0.258619908769,0.154295664419,-0.545137973784,-1.13200689421,1.37366333082,0.195389133903,-0.352949894324,0.878935805402,-0.688158902909,-1.01648705454,-0.129718927123,-0.504881246154,1.89733741367,0.3682855233,0.516762473242,0.817459693934,0.174395609666,-0.262464073866,-1.25125687876,0.433973406018,0.915555146632,0.699487890728,0.0408370211752,1.66389968344,0.380538309712,-1.52447349665,-1.6676756852,-1.32740334719,0.637324187907,1.01008456239,0.544001892393,1.25904561204,-0.650316437185,-0.179581027824,-1.22605900329,-0.107471037666,-1.81999587744,1.1143682625,-0.112339346788,0.315785867995,0.12670742028,0.63616732214,-0.228282604823,1.35802263434,-0.0175979045026,0.449870478759,0.766010978714,-0.829324226618,1.46766159708,-0.267327813429,-1.09923942472,-0.638324025441,-1.1264109677,0.0800624154626,-0.71775929763,1.24774785898,0.524282250358,-0.565522216339,-0.115053933062,0.031833447605,-0.103161133863,-0.346314632613,-0.280101960041,0.342927572303,-1.45004262442,-0.44435610039,-0.315499212028,-0.336963899529,-1.53677023617,-0.361696893394,-0.372539178659,-1.02461719747,-0.831884812387,-0.852850382534,-1.8516486256,0.478628461888,-1.22192422238,-0.271291631959,0.687272958582,1.79564005504,0.837955558949,0.0952518616952,-0.351704393928,-0.242814873339,0.836948316736,0.912523121074,-0.0339669418642,0.29420470556,-1.69198218762,-1.22083637169,1.11755068594,-0.81532256449,1.37244823679,1.19515020392,-0.287134107225,0.305070409135,-0.874777340629,0.294370145947,-0.90908773139,-1.94027448615,1.64337562069,-1.60837830509,0.446248204062,0.596703341994,-0.0167529223603,-0.213459055618,0.355519225736,1.43050370427,-0.053506074896,0.308431119885,0.0824855286865,0.516814670488,-1.52654245889,-0.263373014794,-1.33841361005,0.68966364111,-0.427978644742,1.13808295418,0.374302929367,-1.38903957449,0.0294686929164,-0.675817917335,1.03078403155,-1.11417142347,-0.550262304928,-0.0395540267667,1.09069641178,0.0267856733989,0.958522707467,0.29007947594,0.178044320942,1.49193106848,0.154020941798,1.60945575762,0.526807080762,1.35186301333,-0.996553710173,-1.25863145849,2.09834939061,0.343727550239,1.47744056412,-1.11069232941,1.86140818864,-0.822904186736,0.177405999562,-0.496432712673,0.36754243024,-0.73708222576,-0.304751393538,-0.9985258075,0.347413861158,-1.1401392211,1.63385722641,1.26187699083,0.342793255492,-1.52007726094,0.974267122295,-0.11313647139,-0.520679879368,-0.196742613618,-0.332261329279,-0.508197085284,1.11806649035,-0.136227484533,-0.847733308829,-0.896964713967,0.0302240092975,1.99108626559,-0.403065949209,-1.30721062121,0.182284301259,-0.506531639666,-1.21944216121,1.09383606596,-0.523934754412,0.931864490698,0.422688192104,-0.257095124263,0.303472043182,},
{0.248767289114,-0.560248384675,-0.0642836733723,0.786993595253,0.0332092900767,-2.25184301031,0.397204949949,0.457351053684,-0.635604942302,0.12974349742,-1.39206876374,-1.46922190843,-0.556827957741,-0.231113673144,0.210907684818,-0.336891991149,-0.872572678123,1.17986800898,-0.040026216731,-0.0937305218626,2.99231975933,2.39526260813,-0.361579859852,0.607572648012,0.497029511289,1.23074470538,-0.126690880084,-0.348865010491,1.071954396,0.982169720159,-0.428532734285,1.5105878153,0.547358384433,0.529737435311,0.367114674471,-0.835391382898,0.55036926932,-0.2109664546,-1.29756131458,-0.0730822479717,0.703285972371,0.28837973208,1.09761266227,-0.56687012821,-0.396596987364,-0.5525957794,-1.79600194782,-2.33069930441,1.1081041479,0.465273705199,-0.518583927216,0.858392359157,-2.93303336662,-0.106123991122,0.431704360785,-0.793668262114,0.851639850628,1.12193217096,-1.21515128668,-0.404181299859,-0.641495709162,-1.52656188475,0.832237252683,-0.563663970306,-1.50908678394,0.523528530074,0.183634948161,-0.255373351063,-1.60937685582,-1.5643912635,1.44381121995,-0.413219930054,1.4062448104,1.10250080137,-1.43264480373,1.89716927212,2.06347145603,-1.43213615819,-0.501605213026,0.547824442087,-1.4036394667,0.0545192294528,0.927067102701,-0.541647679942,0.0917567621333,-0.331195111124,-0.328248779485,0.368364706291,-0.767980611992,-0.882646266953,0.506011738057,-1.29856834008,0.22367324957,0.308450564456,-1.06101209494,2.42536697981,-0.317694245237,0.580717936262,0.284482691528,-0.440836081502,-0.562783057309,-1.01750355787,-0.134020877062,0.904032057941,2.11705528171,0.221525417259,-0.251362035358,0.0277121145716,1.03114544198,0.279610820236,0.20663192243,1.32010011499,-1.92685152266,-0.886148029909,0.226805877128,-1.1982266866,1.21637769052,-1.23951646732,-1.01593674922,0.26431029422,0.41453761745,1.68967875238,0.272079343333,0.654360597003,0.460355265516,-1.81851584924,-0.119965719661,-0.195293925565,1.9655314949,-0.595497085615,-0.662450309603,-0.914498930567,0.411762167243,0.31561510384,0.3944922269,-1.05817282603,-0.00435046554958,1.49058957358,-0.189459854956,2.09979266689,2.50359181271,0.000840749855631,-2.35754329311,0.206955250959,0.0244557503472,-1.686093172,1.27964002551,-1.33506571068,1.05109433695,1.12637839351,-0.728545945974,-0.509266827661,0.0751317775715,-0.510847136391,0.77879713574,-0.239928195217,1.30535715294,-1.69659146124,0.904247142496,0.0398266630963,0.484898782975,-0.112476008476,1.12973052465,0.0586252653258,0.904985498067,1.03480028244,1.47201872461,-0.93294553281,0.138023417642,-0.98047864326,-0.57815887815,-1.18702235966,0.503670509643,-1.51065356336,-1.53263006317,-0.544875822075,-0.727988910243,-1.28963991828,0.642862975624,0.212478171659,0.596441274601,-1.56058255749,-1.65977317411,0.876918708203,0.35576408527,1.05719747821,1.29494158694,0.613638966678,-0.436190357711,-0.730590528146,1.51301835585,-0.92550433546,1.20937780658,-1.78255022512,-0.67102973657,-1.58959040488,-1.01866260928,-1.25241974406,-0.654582742441,1.34483420131,-1.48486632664,-0.241618530221,-1.03368174329,-2.95900712595,0.870565465542,-0.417908801902,0.226341647971,0.89220757262,0.363093768542,2.52276272293,0.185677944854,-1.42293363957,1.61377484071,1.5946829892,1.03114824124,0.0862924669369,-1.08166424672,-0.633932252584,-0.443140944198,-0.986077314391,-1.29399933082,1.81228130091,0.498245978798,0.700319264694,-1.11626013885,0.220987703543,0.104265724704,0.991706335246,-0.408095069832,1.23083190897,0.849134073752,-1.47547354718,-0.871426010751,-1.15262678127,1.76479522396,0.253401572796,-0.920490202459,-0.395657618198,1.00187604898,-0.399876572402,0.59031375644,-0.587511397774,-1.09863835032,0.557209820683,0.320546180014,0.808984814873,-0.052784672208,1.78420511551,-0.203451696914,-0.948284205768,-1.31830906433,0.903364539631,-0.135663553428,1.83847807822,0.00594069598445,0.0504508736032,-0.132445167385,0.254028133269,0.989292196016,0.604738797998,0.0378353284335,-0.920750569501,-0.584088356784,-0.498249358667,-1.28362754791,-0.192662606152,0.0146515545949,-1.481952523,0.799662759037,0.311666525319,0.351116299188,-0.704026296009,-0.413866180568,-1.17891305846,0.994134445849,0.412412012629,0.794329712741,1.11709993026,0.824902317875,0.435163973149,-0.00676897312345,-0.506658918445,-0.37049165542,-1.08727623264,-0.117946982738,0.527503986122,-0.785495516988,0.00875763471796,1.51560385375,-0.604319256524,-0.887046695402,0.161347547037,0.452705186539,0.234592207174,-1.16244417544,-1.22569699258,-0.326281936205,-0.287881045262,-0.818270698714,0.336069323377,-0.110535168062,-0.581359849277,0.432912416751,1.51378413426,0.703288900303,-0.649552893311,-1.5510457724,-0.768737932367,1.05427340555,-0.65144550108,-0.424043277804,-1.48432350418,0.812570484409,-2.62597275084,-0.0253367401753,-0.219310266176,-0.642815838861,-0.759401311365,0.646257177458,0.829420484538,0.175954883514,0.657946990134,-0.954533460521,0.392589825147,-0.410324680439,-0.522163058751,-0.822173365412,-0.129962447204,0.863606461398,1.54490899436,-1.72121873199,-0.939445057465,-1.63900946471,0.479180609604,0.435958536677,-0.333717741637,-1.06969208089,0.119678141872,-1.50429190242,0.711727828658,-1.14963070682,-0.333565337483,-0.268046920327,0.0920329549556,1.3685464053,0.26353127443,0.958556172911,-0.542262919298,-1.18037639151,-0.506177899717,1.60529425889,0.39829865433,0.6496814297,0.132059242009,-0.158653577549,0.0443835304554,1.23152555051,0.420266374298,-1.73857805399,-0.228668184505,0.328526864835,0.420380938314,0.395697230543,-0.322356961073,-0.878918460787,1.14667257771,-0.652255717687,-0.602180882282,-1.51114539383,-0.657240624804,0.760593827485,0.0796664872156,-0.320495960851,1.22390971703,0.215017520165,-0.904703269729,-0.200864072185,-0.523622752751,-0.920106382481,-0.0244170306503,0.662970055578,-0.625597922471,-0.32171860264,-0.612073493264,-1.47287597258,1.92427134614,0.351077552016,1.81539202976,-0.715782477907,0.817730026705,-0.950235024722,-0.863187128983,-0.19949321919,-1.51948847348,0.759864506224,0.56469419166,0.443473233442,0.519669389989,-0.0493478738237,1.5755854216,-0.970550173469,-0.160399325399,-1.01303509017,-0.291190767014,0.844500122423,-0.278690472505,-1.39970767855,-0.0383993903669,1.92730400032,-0.0358574432379,-0.319504210935,-2.2487413387,0.733320453426,0.363193095204,0.637179513979,1.08289829296,1.44642347597,1.13394202494,-0.300843980279,-0.483152679841,0.300957414346,0.20697265215,2.2904915908,-1.21597483053,-0.395138424245,-0.247220472716,2.06039500076,1.08897023037,1.37922972387,-0.332171358608,1.38472789313,0.758204201366,1.05018852552,0.134489278949,-0.213771915113,-0.0171270716665,-0.120552823736,0.0347182247792,0.00353283761985,-2.35064125665,0.151317419635,0.442013917917,0.180960592749,-0.488733636476,1.1868524724,0.517014314763,-1.13210795154,-0.206875846677,-0.178168684625,0.322895393479,0.299195551864,-0.577770584399,0.204793682401,0.685790599308,-1.00849012066,-0.495941863028,0.458805212747,0.550901465448,-0.169067559054,-1.73051433379,0.164078406076,-0.376668293503,0.631723557775,0.623661038424,-0.935490043575,-0.640039225522,2.19872698064,0.25386726787,0.422106468764,-0.93846476123,-0.309001144518,1.41380390373,-0.0376904329704,0.479475263905,-0.715052836908,1.6136605884,-1.34853040742,0.284094039353,0.804118744813,1.94650496457,0.61048386634,1.73462227226,0.124579114749,-1.19052552819,0.500972216119,-0.673436462565,1.06205853141,1.54473831574,-0.512101328538,-0.592897995215,0.406427641669,-1.20087254343,1.19878295305,-0.427210261864,-1.20930447482,-0.0693737521372,-0.404885801714,-1.23667307742,-0.186178429308,-0.509176061156,-1.922307271,-1.039021623,-0.442187976498,-1.19410668726,0.544852408901,-0.530097359668,0.585103285547,-0.926786035079,0.173820696606,0.499952461578,-1.20679560362,0.259838916378,0.252891076693,0.702316958575,0.71596319517,0.795305447205,-1.41610740021,-0.717868859648,1.26661236986,-0.848705773012,-0.743582142936,-0.184649349368,1.28546635061,-1.07647429946,1.14658984894,-0.369359020719,-0.308873034474,0.84900969006,-0.0104932772925,-0.237923597614,0.40500247865,1.28369204866,1.10511396856,-0.851547099273,-1.06960130286,-1.13097159545,-1.37288676017,1.99158793844,0.650077938097,-0.817328652852,0.388315617246,0.334558048828,-0.563654220362,-1.61138485302,0.759274711448,-1.39036239676,-1.09326308991,-2.03183196982,1.34343130226,0.869551966607,-0.234287289634,1.31517735152,0.991356956911,0.280267284657,1.67919207131,0.686922010335,0.820391231324,-1.4470315696,0.841565501995,0.810638348458,-0.700731211648,-2.10454111794,-2.18019585773,-0.766648658133,-1.77252155069,-0.255384044512,1.59716874265,0.588713789924,0.377896748687,-0.370241008671,0.0776533804078,0.323012488555,-0.2994573194,-0.881233013152,0.253120002947,1.7402123102,-0.0341202303351,0.734224659472,-0.995228760072,0.445908724328,0.884642291086,-1.47265388766,0.0493762417565,-0.743639174381,0.51521673034,-1.20933103417,-1.1722453992,-0.644248596717,1.48771247643,0.660645183932,-0.632634989324,1.45995442251,1.14946121369,-0.980206623279,-0.687066715944,0.00162531557746,0.581629699917,0.296184606299,0.0967083070741,0.0721897689521,-0.0413298620592,0.0369263507131,1.07284385412,-0.248779009699,-1.97922208057,-1.32716645367,-1.22920683613,0.717619136098,-0.784504044297,-0.13703188033,-0.233980746791,-0.512793281191,0.630768221591,-0.33534494918,-0.826191171105,-1.02954492574,0.631857443853,-1.18737783,-0.262659545152,1.03501357385,0.341291619102,1.17229749949,0.401021252374,-0.51438012445,1.68769759869,0.573030893126,-0.0723608888893,-0.00215693159163,-0.907630494978,0.589505406883,0.0739027499285,0.150485198471,0.345341861972,-0.178394735152,0.178326225534,0.314147133262,0.544565096245,0.236556997094,0.767919714448,0.821664207493,1.98288855527,0.321268499578,0.263973958236,-0.505966010275,0.427430679728,2.82310777426,0.04890134691,1.79570481245,1.95736943873,-0.846361274024,1.46841614855,-0.127526192561,0.0586305819175,0.574141324024,0.477063482208,0.656521228537,1.25253499902,1.09003517096,-0.975712353652,-1.48000776072,1.12261491696,0.612339430878,1.45225339248,-1.07190938577,2.06994729419,-1.1138707038,-0.578510452337,-1.28394007974,0.100185930176,0.78667806411,0.529093442541,-1.71134920106,-0.638824598072,0.290865767507,0.321077423784,-0.822719018841,0.93796791393,0.00028802985256,0.611974987061,-0.752316854612,-0.201887059785,-0.0317248008467,0.582424730528,-0.934575248448,0.784054738884,0.906857959009,-0.857331928019,1.69654352341,1.82156389188,0.787848477752,0.353035055581,0.684675928697,1.56921292327,-0.309133172652,-0.309074856279,0.502432653873,0.516822676084,-2.05612567132,0.00275258133022,1.14859576912,-1.20481883343,0.951964419231,0.567163941321,0.129809092049,-0.0571514223995,1.59396350773,-1.52156073134,-1.8974850686,0.636247051189,1.81643411514,-0.494240933228,0.0705645165652,-0.627418564598,0.192905931662,-0.417649276603,-0.873704545772,-0.362439002631,0.410211208668,0.666502165795,-0.016797052997,-0.0854631004509,1.57258673986,1.28603132928,-1.65593129313,-1.39237486976,-0.464845900547,0.775370511247,0.182603017832,-0.466360588482,0.495864303365,-0.389849379746,-0.338059888544,-1.22746169961,-1.81844112123,0.757763200383,1.78607294017,-0.842023566799,1.607352749,-0.00258616111888,1.3313295421,1.21448780112,1.60317182128,0.0865327183218,-0.127524341805,-1.87099301778,-0.547001143487,-1.26683564698,-0.288157473996,-0.783336461015,0.121110779182,-0.250777662488,-0.416299354856,0.392327329049,1.27306571177,1.16126916943,0.800922372767,-1.40181017529,0.0391111960488,0.693061862134,2.29858809018,-1.07741467694,0.666417489959,-1.78402465082,0.323300396079,-1.21842185274,0.39910422384,0.796077135199,0.687675036515,1.23739174802,0.946878759609,-0.431158792504,0.104977180714,1.25907506608,1.81011860184,-0.702128187332,0.619634791854,-2.84289797847,-2.42248437176,-1.03391647612,1.04129835542,0.592436178904,-1.18280024821,-0.576268709057,1.16714759907,},
{-0.610633625236,-0.299984730579,-0.908403470367,-1.87475962351,0.643638132853,0.536850409111,0.250000597233,-0.0848651425481,-0.389781138346,0.160857644257,-0.808518985808,0.512241390305,-2.41583904839,1.29503957027,-0.606352465598,-2.23593063422,0.574118862575,2.73303843187,0.208712421421,0.527795276604,-0.382664151705,0.64688921782,-0.0149947618287,-0.100814979392,-1.31153221095,-0.0959704352947,1.1740330389,-1.09792667253,0.364161254262,-0.4275158883,-0.87316448574,0.567268949157,-1.25214137724,0.228391851978,0.726920647387,0.323450460185,0.605216332037,0.0294847521022,0.667561177901,0.00900108745462,-0.528755841658,0.89967564072,0.326634646908,-1.78522937372,-0.801002826852,-0.236761364138,0.66974356356,1.94833454187,0.269301555428,0.318491403129,-1.77010934267,-0.85463472644,-0.191960085201,-1.44928864647,-1.00815370953,-0.918282699578,-1.00463237448,-1.5044740682,-0.628361723022,-0.00585616093034,1.44897229176,-1.6521277441,0.327417995337,0.324190151175,-1.46531515916,-1.07415115916,-0.525011791837,0.572743996787,-0.222719431231,-1.38183937921,-0.176401890591,1.34032721521,-0.668998778876,-2.08438740812,1.04224054337,-0.901567979905,1.51575562984,-1.27495753468,0.130041134141,0.889201867606,-0.0322936587732,-0.477545168591,-0.544188964313,-1.21650458529,0.08678058304,0.581804694697,1.40769628605,0.544158907893,0.621947231471,-0.672312241377,1.06561586829,0.0395494948148,0.0798955774997,0.489090419616,2.27686018948,0.0791474735952,1.19337358645,0.960275862078,-0.932691783933,2.31530258668,0.0593561079668,0.163223117853,-1.53413219086,-1.75165163519,-0.368636982777,-1.25322859133,0.758846266067,0.869429194023,-0.753378091658,-0.618799092039,0.301176289723,0.737371449268,-0.522225895241,-2.51846947225,1.06428917905,0.0808336586464,-0.488133622291,0.354941667206,0.835847329212,-0.47396562844,-0.128251152361,-1.39610958644,0.0206958740846,-0.852605180924,-0.581598206265,0.312296368558,-0.802266667775,-0.52901157682,1.18325382238,-1.32050289349,-1.24909119316,-2.15028733609,-0.493209386593,0.928754041879,-0.541086484815,1.62102810631,0.458236188057,-0.739695944668,2.02971287689,-2.16139331768,1.5947989335,0.293963762243,0.179444565805,0.0103562204307,1.20085640674,-0.658514419423,-1.36802450234,-1.1530483163,1.0367785329,-0.588940615968,-0.126094275848,1.84992563121,0.228304146772,0.885767084303,-1.64260405085,0.66040071154,-0.519808191789,-1.06801657883,0.0401350920423,1.05972480762,0.57807699909,-1.31614187671,3.21717417609,-2.04435558375,1.03426538536,1.43577137261,-0.705531105622,-0.0581454655852,1.39021852363,-0.507307773682,1.19423748477,1.1389859618,-1.1954273617,0.555264533709,0.61172687296,-0.263940953307,0.472713085354,-0.456999227765,0.261284298766,0.861645207056,1.22883536158,0.239026763389,1.50348805162,1.71930339068,-0.489970106642,-1.55907553539,0.710873263021,-0.365484763775,-0.504503815686,0.407211699351,0.653450004543,0.935508145984,0.345476565511,0.579379491086,-1.35197696692,-1.58157974146,-2.28232108691,-0.325128342638,2.17447988285,0.176927979036,-1.31977515876,-0.151641239785,-0.021582007992,-0.253827777068,-0.715748333463,-2.43115111962,0.251529327224,0.827761417178,1.15336602444,0.235297260247,0.627637876141,-0.340007395387,-0.719796475884,0.346215583208,0.673505640346,0.0150481795976,-0.576394742172,1.43476468772,0.242553562227,-0.842606869509,-0.353829283529,0.0556776843477,2.16138755274,-0.279925402898,-0.187161363769,0.723216491899,-0.860108491131,1.03694562563,-1.3441825298,-0.347385160522,2.15955988654,0.801127373844,0.294036602355,-0.600307573434,-0.211444256994,-0.295945485819,-0.952576289661,-1.19099108639,2.14258759613,1.72872850474,0.722623039397,0.0192157643904,-1.63902330269,0.183711380216,0.324897222058,-0.344901761944,-1.48695313954,0.254479750187,1.3799450816,-0.335106934551,2.39283235815,1.03499657086,-0.153272772167,-1.08104480282,1.07529932755,1.25692014013,0.393916162237,-1.41673035499,0.200561397155,0.0808263527986,1.02785049006,-0.578111044976,-0.560741522709,0.00871979865928,1.33418558803,1.13893855854,2.00672083348,1.21094178031,0.230059851348,-0.882302054606,0.424812715334,-0.280166234779,-1.79367787468,0.599373610667,1.23310229948,-0.00637897241256,-0.559551821408,0.258862492703,-0.600087939498,-1.01518140844,0.926041343107,0.407497300781,-0.612050924687,0.197139977565,0.687435278416,-1.14523321396,0.864921623782,-0.348718394486,0.875620070201,-1.42231445536,1.22970797073,-1.64976933483,-0.487849242149,0.139689005467,0.562821195783,-2.02556090416,-1.31767316667,0.786209224831,-0.153782141935,-1.90187302584,0.852586250702,0.648371275841,-1.31230294102,0.770978493373,1.87596449406,1.67025673228,-1.31497000304,1.43683522637,-1.30412484443,1.78664870794,0.318857141953,2.305220819,-0.619056627965,-0.213938265792,-0.754603932322,1.25351082587,-1.04179383463,-1.54694159974,1.13719796748,-1.06901510816,-0.119516374566,1.13596076942,0.182823513138,-0.993025744288,0.0608427809241,0.875963859886,-0.613311957637,0.577886758257,0.549086761204,1.20711614068,0.59959938708,0.167667736957,-0.491089280857,-0.261417623448,-0.146842107942,0.0461636634965,0.78020545876,-1.50513476923,-0.212467950067,1.17829950402,-0.270169359531,1.03769866407,-0.409942416038,-0.41381340376,-1.02821676924,-1.41836288992,0.804665488393,1.89437491286,1.30201766141,1.86185442774,-0.683067408222,-0.96423166459,0.832192496638,0.948136044792,0.536248359708,0.264860766158,-0.00805951611104,-0.0533161982362,0.245265269655,-0.928464126857,0.174299536173,-0.575919556152,1.021679434,-0.180390002195,-0.864475430113,-1.01167098614,-0.07449293766,1.37728112872,-1.08609283499,-1.16274649085,-0.907723546329,0.0859861853533,-1.58822750844,-0.487138716483,2.19332498347,1.21725847112,0.656414491006,0.158509943227,0.738968019747,-0.409637112331,1.79731193561,0.683519000254,-1.95502377161,0.285060683486,-0.97790685793,-1.43694797202,-1.47594861806,-0.660472684377,-0.199816059502,0.408828352685,-0.205105032769,-0.691899696656,0.398550246109,-1.0661899473,0.496716246501,1.30734295246,-1.44073461244,-0.309007748244,-0.0671422775143,0.114892507358,0.630792885496,0.978069821619,0.102493317945,-0.169604867917,0.0929181413607,-2.61229679475,-0.169002570595,0.069099544068,0.209835104226,1.98261909871,1.41991421586,-0.443867802474,-0.942008318969,-0.419222244818,0.055242877073,-0.825642648703,-0.726301073445,0.463185220532,-0.78429929874,-0.981314870756,0.620521985953,-0.681395774251,0.428726689468,2.12639181404,-0.0456855161703,-0.171414941719,-3.04690874796,0.248859050643,-1.24134725065,-1.32641258459,-1.5523323857,-1.78147189434,-0.402381308716,2.10134314383,-1.51012385035,-2.67955059792,-1.71062269977,-0.0208619619402,1.16357002267,0.421827306288,-0.71938052188,-0.935330723863,-0.578215358475,1.48156487569,0.40742257985,-0.767042532697,0.119444873261,1.06208870232,-0.837943352984,1.064436401,0.864683350432,1.61111704554,0.691995407768,1.01258817415,0.126660296195,-0.20685022282,0.0907611934177,-1.05248445281,0.69765462116,0.756781369118,-0.282723131831,-1.10932742392,-0.636455103752,-0.701786272699,0.19136713578,-0.692251404704,-0.447318168838,0.0524088206913,-1.31835704581,-0.722801444111,-0.250061117872,1.18606489714,-1.42045505717,0.129965408537,0.560237462619,-0.212835857037,0.509970244519,1.53356998709,-0.630701214169,0.504329363053,-0.0971822449568,-1.38562384465,0.286714356453,-0.654552170554,-0.0433889426781,1.69229337442,0.485104173025,0.900810057596,-1.24203345813,0.0104781526849,0.727514956583,-1.08163756297,0.854755201882,-0.77617292751,-0.698927368986,1.37803822761,-1.08460316621,0.284156352952,-0.985929697381,-0.00194770035431,0.509918817514,-0.754848563708,1.12697117307,0.212263236545,0.237333726868,0.416433461023,-0.0968580613366,1.62163110144,-1.14301316911,-0.151797312058,0.0303346345956,-0.159884037681,0.819100521039,-1.598025411,0.294846133704,1.49343358687,-0.531749469623,1.40794794916,0.629210478847,-1.04937534474,-0.646427151154,-1.63879949124,-1.12192259896,-0.144871203635,0.0805709502006,-0.916063204632,1.11224228495,-0.634627911559,0.0608387823688,0.86647238549,-3.4710091406,-1.01260294528,0.372886258494,0.559528479815,-0.155074818623,-1.29401509064,-0.32544520132,0.493106591967,0.959679442935,-0.043657606047,0.159449872774,1.0091376214,-0.462743525938,-0.10964166038,0.00922048193969,0.933482359176,-2.03445938811,-0.427477800995,-1.59280423785,-0.400194847449,-0.603185723635,-0.153945574085,0.22959687941,-0.593005297142,1.18082857571,-0.741123779675,-0.520798427507,-0.286104476345,1.64289507568,1.7714981603,-1.63704017185,0.622024741251,0.953906723299,0.28851422067,-0.727568860134,0.759898285526,-1.08343687973,1.1223727394,-0.35562252421,0.389979800329,0.652297000468,0.122265407154,-0.188782558043,-0.0446151704155,-0.894138002554,-2.73901236404,-0.87870900374,-1.34888810925,0.315005766105,-0.526510412492,1.20513786459,0.627111571943,-0.77896959602,-1.3584238345,-0.864371486523,-0.214756773168,-0.211269349938,-2.12342117409,0.0848257999317,-1.32759972678,-0.979217791653,0.889905912612,-1.24874103651,1.44050934944,-0.386102651854,0.640492911337,-0.0903581619628,-0.736077160261,-1.68872989804,0.251496492184,-0.84044405901,-1.33350510755,-1.66454662745,-0.660888274218,0.296804889124,0.625237657088,-1.45804609829,0.103423449997,1.25108435288,-0.687409312367,-0.588045631477,-1.91538086689,0.0773762867382,-1.49134446903,1.06805635975,0.713656449781,1.72920741349,1.35409285839,0.69467534194,0.795254962692,0.0474891321824,-0.865185856471,-2.02444582785,-0.280206644197,2.17122187215,0.317557434501,0.450021588686,-0.906409145745,0.429492575998,0.295346887665,2.2273520661,0.202117132208,-0.447984228877,0.513785418867,-0.314973419052,-0.37014919421,1.02726828985,0.178880092878,1.93620969669,0.312126050734,-0.449257451899,-0.592624815279,0.0922097044213,0.446697296398,-1.32748824773,-0.873384288573,-1.29759933875,0.845447286049,2.10926837159,1.16210056336,-0.678023909575,0.822909877763,-0.838729528628,-0.697424412235,-0.494111235797,2.36583187209,1.07390440345,0.0950453209716,1.64114361407,0.205207669842,-0.832590847399,0.576226561139,-1.02257674881,0.0214456990541,0.408646733755,-0.544599468913,1.85813390368,-0.443357666305,0.649153300926,-0.0269850435531,-0.742720035493,1.65596363745,-1.03976163833,1.28084421824,-0.387457024036,0.0651639602633,0.0694841085821,0.541658754745,0.804676966479,-0.303631863345,-0.352681074165,0.405808468388,-1.50037165883,1.24337567637,-0.455081726863,0.360653135526,-0.809598122026,0.163173885666,0.282460493741,0.732741658331,2.80155866955,-0.804886937095,-0.230199826735,-2.85375717063,-1.80297625041,0.914331345859,-1.02703982535,-1.29513105665,0.698901886995,-0.899478302926,0.0364587839822,0.240352254794,0.170377150718,-0.484178837352,0.0438571546723,-1.09225904602,-0.571502636152,-0.87702600308,0.604582860064,-1.41691241973,1.40580969233,1.65847577809,0.0589382318538,0.7870707554,0.382995202041,0.204179112256,0.495278363148,-0.407585089599,0.659124078142,-0.502064910033,1.00873595771,-0.381133282903,0.288883861451,-1.12116215331,-0.636135315748,-0.491185748382,0.878743187052,-1.43055564768,0.0878070555895,-0.894378264714,1.50758935704,-1.03797957848,1.82837417484,0.75986232716,-1.0189156021,0.704454625903,0.567506678493,0.880281729079,0.970617804624,-0.420568180307,0.618150442312,1.77850743579,1.06785733064,0.791716488729,1.18229355983,0.199851620352,1.95628017747,0.274850620243,0.0644251453785,0.709711122273,-0.525616911331,1.04819364265,-0.811973021218,1.53939731595,1.85594783048,-0.460192279651,-0.0646981039714,0.0662672304347,-0.0626754791553,-1.55730287587,0.822881098513,0.207826950083,1.3427669862,-0.427885286578,-0.241170942606,-0.505063289514,-1.40488344356,-1.49918563107,0.442826871338,-0.489453069131,-0.224203458878,-0.451078298132,-0.406453876188,-0.262713025552,-0.0718101978488,-0.414556904357,-1.3238371157,-2.49148271622,-1.03950666355,0.392388510724,2.32774416514,0.597380521302,-0.105538253196,-0.665451719569,},
{3.07115392401,1.23654662451,-1.04900939599,0.267175133863,0.00513151923587,-0.849827505321,1.56157376517,0.669886054635,0.534087217188,2.20022659219,-0.312495866489,-0.478469661528,-0.251172623564,2.68476490552,0.975109066548,-0.164799854487,1.67338700547,0.343687674806,0.0144045168966,1.5366458572,-0.268744011784,-0.299713856299,-0.179203885763,0.25926342135,-1.38176428169,1.2779931564,0.154131055702,0.606931090761,0.798699055316,-1.12464621649,-0.592304399036,-0.459706875307,2.02581478897,1.81571983176,0.0163625939152,-0.97696696895,-0.259727077184,2.14766448275,2.53807116415,-0.0137210684988,-0.840574675873,0.204858932038,-0.86866213172,-0.0297438266287,-1.2889187463,-0.330700707998,0.527204505074,1.19327470508,1.69212984808,-0.0279913762598,-0.371931048011,0.775450057449,1.82690642179,0.320477652152,1.5215646874,-0.269385591451,0.244840093979,-1.0410419279,1.1777787383,0.0455522291287,-0.612518705385,-1.37530055649,0.0483675328094,0.458971501688,-0.719453068484,0.382565077076,-0.0529011309476,-1.25805693644,-0.864944416881,0.789350492403,0.199106994603,-1.01278078777,-0.196130139537,0.542432757285,-0.363059360627,1.4402666803,-0.459618369171,0.070147654073,-1.5480495876,-0.186328019006,0.48843946558,-1.34981266022,-0.740885294361,0.957419883278,-2.12391561853,2.71443857866,0.731900607587,0.813721002658,0.590122790615,-0.723618161443,0.411414302357,0.321606462232,0.710552869816,0.434074303427,-0.509190640636,-0.648062650573,0.158044539439,1.73640681437,-0.261467652015,1.1691823586,0.210432240098,1.11663811011,0.131744124799,0.203479870395,-0.387173270677,-1.68237121203,0.258803854024,-1.20434109211,0.887576394021,-0.871827611174,0.455680172965,0.137827591981,-0.103639923469,-0.122036696901,-0.514503503977,1.70231925807,0.324025417756,-1.4032045439,0.359114109375,-1.2862932028,-1.26724746796,1.58018456042,0.23390894035,-1.70736314138,0.0909894623776,0.79658550931,0.0469803803372,0.301762171859,1.13781727473,2.49784855086,1.37773196562,-0.433127917675,-0.509735343247,-0.667032559106,-2.13374709368,1.43201396238,0.79729376628,1.27985750556,-1.55864586525,-0.635362647444,-0.806991499326,0.260022762063,-0.702122842121,-1.09613238188,-1.31131017137,-0.0347066998797,0.149991400657,1.08853161937,0.466411764301,-0.0920367409984,1.18486997138,1.84715772022,0.511305043683,-1.16558891299,-1.35012826469,0.435811949582,0.196313857567,-1.33560079549,0.985593090466,-0.207424179465,0.166699173736,0.0552327385207,0.905892754969,0.802155648356,0.318416533384,-0.47335140461,-2.24105608136,1.80205732104,-1.85645173922,-0.191891229894,1.18905331083,-0.296979201497,-1.31451618021,-1.34717943516,0.783171091031,-0.408376472421,0.539126291767,0.316106684153,-1.48627406488,1.6416627344,-0.274262723075,1.84972001632,-0.364254999336,0.289103369967,-2.02960487955,-0.0187893741497,-2.9110330257,-1.0357327904,0.889237543062,0.395412114881,1.20367499809,0.442381628268,0.255615491681,-0.0965259747506,0.305729370812,1.09592695024,-0.811988863267,-0.393392212229,-1.10875563771,0.824172506285,-0.46586992363,1.00868766954,-0.0986492933017,0.341591680736,-0.884656450547,-0.832987532437,-1.3301431962,0.516412284071,-0.494630507337,-0.869527201323,-1.68157254132,-1.75698897915,-2.08857802321,0.84088525436,-0.0811718450051,0.303093282037,0.478359066254,-0.215380072991,-1.38933878444,-0.917609223333,1.00622513764,1.72066836371,0.471097989316,-0.543440241099,0.12632402825,1.4141687627,-1.02275629019,-0.596612612626,-0.463194969349,2.09832693602,-0.779976062436,1.03717562454,0.330414799506,-0.826354260939,-0.164841301028,1.35501866872,-0.275893273363,0.934897791078,-0.737539909321,0.642680405336,-1.60896663659,1.10955330015,1.74550109164,-0.621680689976,1.83841530011,0.0451045682488,-1.14675571819,-1.17743386187,-0.51270118867,-1.30284750673,-0.640189405109,-1.27764206904,1.93711123608,1.22984899521,0.74887282822,1.73631185702,-1.01186265481,-0.622839543606,0.271171407577,0.825629182114,0.083905290531,0.31668979583,-0.194372768045,-0.090264451931,0.293324823343,0.325379293543,1.35293378395,0.964226323438,-1.0098614134,-1.29395495293,-0.101889951049,0.405209534517,0.0155549248148,1.49378562918,-1.19393017655,-1.53282919879,1.04225366859,-1.37072461679,-1.03837041734,0.481483799423,-1.67014837542,0.437812322607,1.10901726879,0.499547769399,0.123576973589,0.411822523148,-0.00148565784363,1.07525315431,0.00379134538707,1.92681277415,-1.0245449416,2.1655046238,-0.529657316427,0.515575139523,-1.2859888554,1.05961767039,2.05373944072,-0.399818995563,-0.236434168434,-1.70068572394,0.926906178393,-0.812979588934,-0.0868041678121,-0.210165086096,-0.315689551018,-0.496141716957,1.53024792888,-0.0114837694493,-2.10983313695,0.658816331239,-0.351419340447,0.0353371150535,-0.657379047973,-0.00270681352385,1.1361694018,1.81075195957,-0.569651741757,-0.338604304851,-0.127241276841,1.74325087119,-1.0383263096,1.1040426547,0.0941823758907,1.05406582844,0.557434698899,-0.569728289665,-0.966417247749,0.751187670775,1.51927354847,-1.18359416312,1.178492794,-1.24081851034,0.762209310408,-0.430750687472,0.130074667546,0.472845929276,2.31170057688,0.469749409064,0.308125023341,-1.20553996611,0.393673046517,-1.39396594463,-1.43700498691,0.106083761481,1.34681895927,1.12362149185,0.121454479102,1.08877635469,-0.940528176191,-0.804685646686,-0.898656224447,0.749411731246,-0.741152110099,0.563358674889,0.559061708021,0.148856944033,0.0343613657566,0.952028865021,-0.502205110714,-0.768027404114,-1.01582411494,-0.362928815159,0.888239009769,-0.611821834583,-0.207867330469,-2.45589548345,1.04471445628,-0.618056083137,1.21803263682,-0.169439429762,0.990841628026,0.910984965714,0.596928545981,1.89691969648,0.894105383963,-0.496181495092,0.100118002,-1.53228637644,-0.0558215549752,-1.98900024606,-0.801496898322,0.50065445554,-0.0204172257607,0.600934568039,0.184003733608,0.15587756596,0.205426308238,0.180500462766,-0.956612092137,-0.80130243337,-0.284321600668,0.235084300698,0.274593932324,-0.0991022967375,-0.650750352335,0.405019053451,-2.4172578148,0.913985633941,0.169204634436,-0.418000229046,-1.71421958265,1.69899367076,-0.96876104782,0.269271944485,0.30538066033,0.229248204957,1.10968211238,-0.344907582548,-0.520606860003,-0.116114727651,-1.34480567995,0.0544383603748,-0.8237653266,1.44654566773,0.160022787899,0.911994117901,2.81742573789,-0.93549481825,-1.15468608682,-0.309774813329,-0.758396275776,0.515480917123,0.711795027171,-0.202281021718,0.770462991506,1.7661828686,-3.09213390411,0.142968127184,-0.609419863873,0.402953683355,0.155195209391,-1.14520847241,0.843238422502,-0.665293666571,-1.7527063636,-0.806596045585,-0.607804901337,-0.258680883451,2.42382756,-1.77090729467,-2.39603001337,0.277198311107,0.189366371399,1.01930535597,0.698960165749,-0.707333891454,1.13023634163,1.63385944785,0.081592308859,1.16205315393,0.264795678192,0.637996077925,1.60402364763,-0.607042727754,-0.117468930928,-0.28339381394,0.316299453471,-0.623496024577,-2.13520081125,0.0979391736278,0.167807855759,-0.899961108812,-0.409687419297,0.597594970159,1.58992823714,1.81343657271,0.662126787007,-0.784984567611,0.507541285057,-0.991885372083,0.810957118216,0.822423329583,-1.00337225509,-0.184659038133,1.20266693049,-1.12434305882,0.244689826806,0.0474216939222,-0.175246368596,0.978113794156,-0.253401261129,-0.178370241689,0.155822792974,0.566317495419,0.220591817511,-0.159598965314,-0.9647854062,-0.174028526369,-1.1540991081,-0.0293443586468,-1.62311366348,-0.315310619976,-0.236954546406,-0.261574134634,1.43130123685,-1.8090408444,-2.09344388854,-0.589708033753,1.97620305303,0.51062757009,0.211328030837,1.80877523234,-0.960561190645,-1.13864373177,1.12380321844,-0.650497828328,-0.0975472542465,0.666168287232,-1.16853034127,-1.34462945422,0.557328048583,-1.44240069084,1.43634046154,0.64451119626,0.270315687963,-0.228946400079,0.0461757656459,0.316820397914,2.2656577943,-0.115677954252,-0.00873317676506,-0.935444977876,0.0052790842718,0.941067782695,1.04386523786,0.55688394511,-0.403425544734,0.64707328693,0.198405362025,1.94708993324,0.534395017809,0.144172230364,-0.849841557512,-0.882516033135,-0.92250185416,0.547431600288,0.235718079306,0.617906596199,0.0978358564131,-0.200062677465,0.441007022381,-0.157003271055,-1.24775378493,0.0704935264135,-0.408222505659,1.02104410507,-0.999709491587,-0.288880614939,0.500764306507,0.316785692555,1.41597280919,-0.0561345190942,-0.939986187344,-0.673761737034,-0.202870782689,1.04449124687,1.72702021761,-0.449724315111,-0.374325131099,-0.819535664604,1.01725110418,0.522884782012,1.19090813953,-0.273077253013,0.0687381348927,-1.12885274057,-1.571858317,1.58395162729,0.196806736807,1.14783761564,0.518986224307,-0.386852589123,0.0891896156395,-0.394022153788,2.51063595761,1.44834678134,0.729915598522,1.01284472204,0.192154840753,-0.0364668958114,-0.920579562155,-0.137499345691,-0.776965643399,0.425241085097,-0.889095393746,-2.61937391946,-0.116728502063,0.207503490532,-1.72508430115,-0.971389776099,0.318342387314,-0.598592631746,-0.417512327665,1.07076292974,0.213105939939,0.986096026733,1.2796632737,-0.249727680137,1.99378625534,0.136896306513,0.105505003401,1.25251241712,1.93874992211,0.226753798145,0.885572391037,-0.154583597326,-0.767158536683,-1.04892856343,0.723980396703,0.590217390085,0.547098127155,1.81265908698,0.584273321659,2.12415517139,0.354922570067,0.681323099327,1.76789223004,0.515296415219,1.72957954759,1.29835517314,-0.141092304987,2.26514388121,-0.52896221738,-0.547087721097,1.19714356235,-0.196603558032,0.149402430604,1.33563015942,-1.12341880801,-0.821078232622,-0.884498528624,-0.205983583337,-0.982023007851,-0.778376147991,-1.20638770742,1.31230062869,-0.353606002905,1.19242875767,0.380107592046,-0.502901017095,0.2989637626,-0.84306859121,1.4182204307,-0.115820566369,0.902511596453,-2.58750479106,-0.487404544031,-0.840886315494,0.457195184355,0.604809800412,-1.12558938786,-0.922654111376,-1.10308685601,0.233785526333,1.74926878424,-0.416683192217,-1.02903316978,0.0825455547657,-0.919680211369,-1.38656144543,-1.08086969754,-0.955819656886,-0.578189794542,-0.378611067787,-0.937995875247,-1.59496110419,0.243598762942,2.81677715734,0.101815212345,-1.57212300167,0.65058844109,2.14692608666,-1.15841017021,-0.349872000748,-0.00318038589057,1.79715588142,0.592938520991,-0.0276932428277,2.03967417745,2.54420413047,1.17205334827,0.0810548488594,0.507930945911,0.863691434506,-0.235976808106,0.624553300333,1.23709874303,0.645260699554,-0.201521677521,-0.207343905575,0.0469644420156,-0.51558364224,-0.943170558753,-1.44885040703,-0.146766757001,-0.715275367193,-1.09188733605,-1.9812634979,0.475702859865,0.684326253026,0.791061499317,1.03831204095,-0.841545889328,-1.95988342072,1.72148875464,0.417846851807,0.750044982957,-1.06897710054,-0.0322652065476,-1.5149033105,0.874264097094,-1.44881979925,0.712172293572,0.0806164396034,-0.682372395743,-0.0973548474449,-2.38548710812,0.0121904446985,-0.857330451587,0.0999698764184,0.169378873576,1.22410431667,-1.37812498677,-0.454881428128,-1.21662738774,0.215443666507,-1.90419516723,-0.163936598498,1.31262620004,-0.441629583418,-1.17507611423,-1.16480191524,-0.617655588249,-1.42548305853,-0.831157230547,-0.0233576312493,-0.589064958945,-0.232656306348,-0.721836165994,0.787207543154,-0.363402263006,-0.10633688649,1.14084621182,-0.54962490235,-2.59474271476,0.528135043789,2.63975697854,1.55237018736,-0.769194550367,-0.157925850263,-0.349080822553,-2.69526527968,-0.857278313117,-0.211327150139,1.70553321095,-2.00271640906,-0.828410524229,-0.0950945418637,0.263844112284,-0.897023105939,-0.802919658867,-1.5388411587,-1.48817532043,-0.39766404673,0.776422422941,0.274885116461,-0.820891412993,1.69722179691,-1.16085789528,1.26740694614,0.755818827988,0.85604653765,0.0476585159983,-1.27854533506,-0.309378222958,0.224853565341,-0.777537321757,-0.00892629712032,1.92076606479,-2.14301482926,-1.26382041677,-0.307864997624,0.291374776213,0.394366368649,},
{0.70355524988,-1.14959582563,0.413726600791,-0.252285821011,0.789061106744,1.08114457408,-0.0502136190657,-1.28942917464,0.62424856961,-0.323734921255,-0.604951064603,1.91974511099,-0.00334004595551,-0.219725537448,0.699334795342,-0.256360932008,0.00859971924609,1.09539203688,-0.157050068117,-1.08724962901,-0.46534906973,0.668894978297,0.771924525989,0.420160011583,0.280522320851,-0.567209017475,0.835868673788,0.126314570507,2.1738869133,1.15451686609,-0.0627600951433,-0.467691033698,0.331785234368,-0.282216047563,-1.12090147918,-1.56010565457,0.323704197263,-0.413121010952,-1.23744743043,2.40078960123,0.84420578845,0.470414649074,0.240936268723,1.77294127604,-0.323265869147,-0.275494343235,1.48133769752,-0.101000000384,-0.655933072839,-1.41907877322,-0.531755810649,0.927237939378,-0.994575707709,0.303728415114,-1.16360165825,0.018901901879,0.361464802272,-0.465909119312,0.632643803474,-1.13295321537,0.0355862504523,-0.409327329171,-0.625573013439,-0.0761999295501,-0.0868709519382,0.197715080242,0.722783195101,-0.822976388719,0.51198804176,0.092031932532,0.100065813346,1.63357306004,1.41787285107,0.17654761704,-0.533072112938,1.47117861315,-1.60769734612,1.1693101263,0.112212841464,-0.344047158336,1.73139094642,-0.118847912391,-0.573443919999,0.549342028644,-0.373704363426,-0.508414965367,0.0988517083969,-0.441769873581,0.739374801424,-0.270593586447,-0.114583851351,-1.05745431966,-1.11595957439,0.431215538017,2.16394396794,-0.472750864602,-0.302725251394,-0.499035423449,-0.672135749749,0.988643053311,1.45501722005,-0.473469153081,-0.619992158535,-0.368308383518,1.00454861466,1.80043672003,-1.55623447069,1.44680144181,-0.680971592252,-0.271742797533,-0.586231772634,-1.81375156897,-0.657280896478,0.110995994539,-0.164225843821,-0.840213283471,-0.666092810686,-0.175097987742,-1.14331126398,1.42379598057,-0.747564816069,-0.732169077728,-0.169527705006,-0.207772438059,-2.10140119092,-0.755659993995,0.554437990368,0.814008557591,0.678979097367,0.516240373702,0.98426417055,-1.27665692201,-1.00225329575,0.46491712577,1.61035924066,1.87566939907,-0.402349771457,-1.81813881478,0.0811309580238,-0.367122725851,-0.475575223948,-1.76195331603,1.45561900202,0.790118721289,-0.992128147695,0.0777038988829,0.537364102522,0.346867780013,-0.172181316705,-1.28099345048,-0.444471474343,1.98208643243,-0.719407827873,2.18003143442,0.73391055511,0.257336750421,0.0302754171475,1.17302418127,1.80967860467,-1.6416691832,0.435340014873,0.331824366264,-0.113323308499,-0.684074786557,0.274135591617,-1.46324340844,-1.81084844558,0.990435122822,2.31002115499,-0.0950835932711,-0.37481599538,-1.54691909186,-1.10345469311,-0.866728988129,0.403620232312,1.93010399317,-1.53529920847,1.172341739,0.435243872261,2.4929429835,1.11128202659,0.770275185432,-0.255942957065,0.75309713281,-0.219814857242,-0.462415494664,1.82024163596,-0.268968223297,0.0201833983455,-1.96879406263,-1.09377762465,0.847979498656,1.12735120671,1.14571016705,-0.78841475514,-0.0872279795127,0.679732132932,-0.686250952296,1.08801601588,-2.09228061162,-0.475913884103,-0.727594041031,0.939144366472,-0.275620452095,-0.246461022438,-1.32117345969,0.262427979681,-1.03018886738,0.480025500684,0.613167324814,0.564281628271,1.95142606664,1.15724859902,-0.406367246949,-0.10572115985,-1.12745366286,-0.0915258668491,0.374024180072,-0.561517069481,1.0993315002,-0.0774771809078,1.92752356674,-0.273291052535,-0.340392667253,-0.222673977822,1.87384733591,-0.19910728397,-0.0257138718163,0.0837075530603,0.588678009466,2.35368694145,-0.218932954845,0.12185617175,0.335441511454,0.571612931163,0.0644527378104,1.04304821803,-0.130243379241,0.353807442338,-0.536892051299,1.54259593017,0.537551234555,0.262456235881,-0.253546908304,-0.646998907268,1.15494224633,-1.55624823837,-1.17739977618,-1.41854663582,0.83457318375,-0.118736270394,0.87685301474,-1.05944896245,0.438230275749,-0.116944049851,0.876994405124,0.313356112513,-0.286829893928,-0.742373351298,-0.0405121587182,-0.0659568031636,-1.87109140753,-0.528378523154,0.597685158928,0.463130165246,-0.39347854519,-0.777186641624,0.223217751027,0.438714491421,0.51883887155,-0.509032681938,-0.766512437785,-0.789186245619,0.40298633883,0.880539696563,-1.39554240245,-1.65982813153,-0.575178267816,1.33757329197,1.4022972646,-2.99968431071,1.50357545757,-0.910936959635,0.330972698038,-2.13517915558,1.19192283208,-1.28097069614,0.040824783461,-0.0291326252626,-0.727283469083,-0.0518735298721,1.14280799206,1.72652740578,0.613603331283,-1.20962544172,-0.465648453395,-0.331980586018,0.291082701689,-0.969868928476,-0.93549544572,0.716788910313,-1.70385502946,1.16866810874,0.0714359238568,-1.85698604801,0.156793170764,0.527863210325,-0.953513391231,-0.156482932116,0.535885212087,-0.607547127484,0.966043663806,-0.570537752137,-1.69860964337,0.722539860047,-0.543105408966,-0.0806599910422,-0.164959468693,-2.55639602891,1.70882440099,-0.480092169841,0.438034336005,1.03149802138,1.13974966842,0.705759333069,0.514479052862,-0.505264465274,0.677759505767,-1.66488340238,-0.2650211681,-1.81505786276,-0.166980780368,0.210582813897,0.166538043784,0.938202196009,-0.378178234129,-2.25609233481,-0.108589985663,0.418332209074,0.177927154644,0.639236376108,-0.816943790661,1.35717202935,0.582054550574,-0.278560801626,-1.0368288602,0.954611981208,-0.369923380968,-0.700683535564,-0.952388325915,-1.08464862692,0.331296180177,0.4682757978,-0.295092528192,-0.694902443677,0.471750736806,0.0764564834671,-0.287337697984,-0.283858051593,-0.874016881094,-0.100383778867,-0.405523000483,2.62474001842,0.662998539728,1.27972115215,-1.51680895952,1.08241736094,1.13463977117,-0.880785371723,1.03141162158,2.04793336404,0.25422765747,0.117359043158,-1.14358882822,-0.333730281328,-0.224705011097,0.564158076841,-0.893139868914,-1.08192742486,-1.72174741877,0.0873043172443,-1.17378609431,0.884273811488,-0.0449674172219,-0.893442026138,0.337866536559,-0.583614793204,1.14421453457,0.230670600989,-0.869096230771,0.78970686331,0.00782839744878,1.91870585099,-0.210168062892,1.30895514246,-1.89678576008,2.4773630979,-1.71127511413,0.998362079919,0.0429799788168,0.0799189465738,-0.399109090112,-1.61173208201,-0.959278812594,-2.61547149196,1.9887071717,1.6733260363,1.76820881508,0.869314709875,2.11530208169,-1.06498217809,-1.26528101393,1.86148338276,1.60312536889,1.00743295755,0.208252943245,0.678095406931,-1.232278314,-0.37346326683,1.12079520181,0.204841054113,0.775430348546,-2.04193342645,-0.185836346479,-1.35830231863,-0.375800773879,0.68134902879,0.378270741436,0.987204727378,0.582795042557,0.263709966811,0.654020245585,-0.699461144832,-0.0979331438759,0.487656061313,2.16483811542,0.34594046815,0.779020002649,0.309726729756,-0.618963696279,-0.969775905229,0.183296412445,0.333633461561,-0.464196073036,1.58822679158,-0.650318757078,0.825204106902,-0.843871034862,-1.01328502396,1.03469521061,-0.231430641329,1.36619930563,1.04143845902,0.206040065253,0.217933377804,0.280933714021,-0.109065279311,0.291047832799,0.306200345512,0.906331414629,0.991822020143,0.754934872133,0.372878478869,-0.204026130698,-0.488705813293,0.583680899028,-0.602024081414,-0.588345263691,0.703148258657,-0.98997646121,0.422542780849,0.893680975279,-0.619492092438,-0.365357765591,0.547938781292,-0.29842013457,2.23902389221,-0.481449133015,0.0355669786896,-0.763985502896,-0.834765536278,-0.32585414441,-0.186350997292,0.22936209587,0.0936835600381,-0.251521950543,-1.49466981418,-0.878590523813,-0.947284870301,0.800420115863,0.56400366594,-0.818981346975,0.388463129804,0.366024361496,-1.41126792271,-0.253594205173,-0.755591361229,0.825735317804,-0.0962598735928,-0.0291649723449,-0.507936360869,1.84353719912,0.983569629066,-1.95658206683,-0.615662661579,-0.772958151974,1.04862047453,-1.33510617366,-0.34105577771,-0.0559870330207,-1.50000324277,-0.892598213875,-0.0380025205682,-0.881568917463,-1.51563037896,-1.62515559809,-0.936375522245,-1.00631434847,0.260458279049,-0.119061650034,-0.00323998902538,-1.30338658306,1.06347984273,-0.546176529573,-0.640433366148,0.293091668657,0.458663534184,-1.08942450299,-0.246093324303,0.393872951495,-2.24278448736,0.642282537003,0.119717804747,-0.405300368332,1.01371604633,1.6602157495,1.0246426053,-1.69657687271,-0.966369835019,1.03063438963,-0.316176842363,-0.659138488405,-1.94011569763,0.459849886737,-0.507739819646,-0.21977322711,0.0164951518661,-0.335717998212,2.32718984596,0.496019611383,-0.964914900066,0.662283016319,0.402840317048,-0.83447846149,0.698577826769,-1.14548553141,-1.26010134079,0.377197484251,0.330756380372,1.41508292382,-1.33955529732,0.474592692847,0.193024798176,0.512192073405,-1.75304162345,-0.650282216339,-0.970364033183,-0.210486160982,0.699539519281,-0.549529936688,0.099419700396,1.01198758517,0.0265361904735,-0.928557882391,0.219139877393,-1.0824284372,-0.594971202834,-0.543818731966,-0.0473855367202,-1.94541937475,-0.34222450984,-0.839227581394,-0.829690469625,-0.55245250966,-1.23758723378,-0.341219678331,0.423114688243,-1.70729760712,-0.79605669631,0.926655451728,-0.61418421867,0.669060364621,0.26148949218,-0.0398694192839,-0.828076111637,-0.138130609827,0.63295502704,-1.00131166903,0.717754924571,0.173427085237,-0.25238141169,2.16481504922,0.377876582092,-0.692414233158,1.1658707216,-1.03786526252,-0.292037131219,0.420370145519,1.25612631269,-1.19102675664,-0.92661261792,-0.540851836291,1.46872483487,0.809849843516,0.522100078072,0.0711344175448,0.311796732812,0.408605516418,0.740460846434,2.31232581996,0.372699916891,1.84917214604,-0.891323845847,1.34786086494,-1.05413501842,-1.27998231796,0.23425943979,0.0342756448307,-0.896165113247,-0.865456895607,-0.364316008175,0.89128001632,0.791213290213,0.430386078444,-0.622459939315,-0.155099176327,0.473195821529,0.832260551358,1.10205235436,-0.216498162748,-0.485425612745,2.71345556341,-2.46572834437,1.36199828621,-0.283275956409,0.613986470524,-1.54695908917,-0.796301448861,1.42327756279,-0.674014977023,-1.06515953074,1.04835985632,-0.230694279961,0.449163073006,-0.412686119191,-0.581200295878,2.47728130032,0.76553850265,-0.437511195428,0.398924528509,-0.254586293807,0.980909786537,0.261809923729,0.134937139586,-0.311972680179,0.0758308084626,-2.00098122688,-0.673212290717,-1.04872143692,-0.0929817170347,0.683539690706,0.288390431016,-0.430068395532,-0.493268237792,-0.445772296098,0.251359050241,0.791959942831,-1.78447843148,-0.573254016374,0.152140351079,-0.435801209503,-0.592562276896,1.17892777251,-0.573620894197,-1.33430613336,-0.347474457189,0.882212181453,0.625525196094,0.182029998067,-1.623491462,0.755323403244,-0.49170369251,0.526980705809,0.412963461704,0.14469637295,-0.025297253332,0.741373232784,1.92695511557,-1.60209486941,-0.197061378043,0.122205851774,-0.113032785555,1.28904256711,-0.297903419908,0.848214977891,1.07009497483,-0.556841368819,0.45425464357,0.677487471828,0.9894839396,0.0536900262415,1.36132719955,1.06677900151,2.03464365503,-1.07872312872,0.36308734913,0.877071323066,0.0734183546208,-1.89601840679,1.18646920273,0.936356099541,-0.143357770272,1.3797861717,-0.622998476116,0.0791076544283,3.35895531111,-0.81250110587,1.16263136683,0.808155443146,-0.75673684316,-1.35272281216,1.03147586502,0.683086392192,0.868714690145,-1.11793851816,-0.925064837048,-1.82844786246,-0.660127610818,-1.07021428784,-0.661124371204,-0.0595517874244,-0.398389090241,0.255533836934,1.35697101816,-0.615541902549,-1.74647325589,1.20672786955,-1.83278865844,-0.308303405508,1.11501838942,-0.194724366682,-1.00251730718,-1.35975334011,0.234605236421,1.1917071843,-0.0410879034604,0.316374760762,-0.529664765706,1.24807524418,-0.344238078804,-0.156243643417,1.63293684186,-1.67078814906,0.377575408507,0.913453455371,0.437897254824,2.16147820174,2.27486722201,1.21407115199,1.00181924144,1.05219647478,-1.34801283495,0.258439154571,0.984710963922,0.388096067676,1.04594487704,0.771773614421,1.43189702839,0.405321559138,1.80253679995,-0.971852549546,1.01699448065,0.410001130135,-0.237374567454,},
